SVM-light Version V6.02
2 # kernel type
3 # kernel parameter -d 
3 # kernel parameter -g 
1 # kernel parameter -s 
1 # kernel parameter -r 
empty# kernel parameter -u 
104 # highest feature index 
10534 # number of training documents 
2187 # number of support vectors plus 1 
0.57338162 # threshold b, each following line is a SV (starting with alpha*y)
5.4836955784410541525630833348259 1:0.15700001 2:-0.054444443 3:-0.072592594 4:0.050955415 5:0.015923567 6:0.022292994 7:0.076433122 8:0.060509555 9:0.031847134 10:0.038216561 11:0.076433122 12:0.022292994 13:0.082802549 14:0.019108281 15:0.1656051 16:0.063694268 17:0.073248409 18:0.031847134 19:0.085987262 20:0.057324842 21:0.044585988 22:0.0031847134 23:0.012738854 24:0.015923567 25:0.015923567 26:0.022292994 27:0.076433122 28:0.060509555 29:0.031847134 30:0.038216561 31:0.076433122 32:0.022292994 33:0.082802549 34:0.019108281 35:0.1656051 36:0.063694268 37:0.073248409 38:0.031847134 39:0.085987262 40:0.057324842 41:0.044585988 42:0.0031847134 43:0.012738854 44:0.015923567 46:0.050000001 48:0.016666668 49:0.016666668 50:0.033333335 51:0.050000001 53:0.1 54:0.050000001 55:0.2 56:0.033333335 57:0.050000001 58:0.050000001 59:0.18333334 60:0.11666667 61:0.033333335 64:0.016666668 66:0.050000001 68:0.016666668 69:0.016666668 70:0.033333335 71:0.050000001 73:0.1 74:0.050000001 75:0.2 76:0.033333335 77:0.050000001 78:0.050000001 79:0.18333334 80:0.11666667 81:0.033333335 84:0.016666668 85:0.033333335 86:0.016666668 87:0.1 88:0.083333336 89:0.050000001 90:0.016666668 91:0.1 92:0.016666668 93:0.050000001 94:0.016666668 95:0.1 97:0.06666667 98:0.083333336 99:0.06666667 100:0.050000001 101:0.06666667 102:0.016666668 103:0.06666667 #Q05867
6 1:0.266 2:-0.08740741 3:-0.048888888 4:0.0093984958 5:0.073741771 6:0.0092185671 7:0.066634417 8:0.053322025 9:0.076607287 10:0.046586867 11:0.062162854 12:0.019309167 13:0.066458702 14:0.029236633 15:0.097466357 16:0.029363774 17:0.040750802 18:0.035856843 19:0.064377479 20:0.045389298 21:0.058722407 22:0.010980156 23:0.063283116 24:0.028373547 25:0.021449871 26:0.0015677377 27:0.079876721 28:0.075818136 29:0.17694932 30:0.056833848 31:0.042549945 32:0.036140859 33:0.071203239 34:0.018094156 35:0.083159603 36:0.013588944 37:0.042199507 38:0.080661707 39:0.053828403 40:0.033276893 41:0.034872521 42:0.010181665 43:0.040433172 44:0.024746051 45:0.070833333 47:0.088333331 48:0.025 49:0.051984128 50:0.014880952 51:0.060912699 52:0.038690478 53:0.095833331 54:0.02 55:0.10436508 56:0.02 57:0.0718254 58:0.06765873 59:0.099642858 60:0.022817461 61:0.063849203 63:0.072658733 64:0.010714286 65:0.070833333 67:0.088333331 68:0.025 69:0.051984128 70:0.014880952 71:0.060912699 72:0.038690478 73:0.095833331 74:0.02 75:0.10436508 76:0.02 77:0.0718254 78:0.06765873 79:0.099642858 80:0.022817461 81:0.063849203 83:0.072658733 84:0.010714286 85:0.070274904 86:0.004822915 87:0.053778995 88:0.0080127586 89:0.13007514 90:0.063438222 91:0.056673989 92:0.0037996271 93:0.073470198 94:0.043021955 95:0.11922649 96:0.018703086 97:0.010181936 98:0.037937243 99:0.064902313 100:0.061141036 101:0.049506187 102:0.010963896 103:0.060086347 104:0.053261049 #Q628Z2
6 1:0.105 2:-0.1237037 3:-0.032592591 4:0.047619049 5:0.10302154 6:0.011309524 7:0.073373012 8:0.056150794 9:0.053968254 10:0.049149659 11:0.032738097 12:0.023214286 13:0.069642857 14:0.032942176 15:0.086706348 16:0.04107143 17:0.048531745 18:0.049693879 19:0.072414964 20:0.030357143 21:0.043730158 22:0.019642858 23:0.042817459 24:0.02202381 25:0.14992559 26:0.015625 27:0.06640625 28:0.044270832 29:0.05078125 30:0.059895832 31:0.026041666 32:0.01171875 33:0.083333336 34:0.020833334 35:0.10677084 36:0.0390625 37:0.024739584 38:0.060416665 39:0.053199403 40:0.046875 41:0.026041666 42:0.040364582 43:0.038541667 44:0.033854168 45:0.085919537 46:0.0086206896 47:0.11695402 48:0.076149426 49:0.034482758 50:0.065886699 51:0.023706896 52:0.015086207 53:0.049568966 54:0.054618228 55:0.12284483 56:0.05172414 57:0.053879309 58:0.039408866 59:0.058620691 60:0.045258619 61:0.041235633 62:0.017241379 63:0.017241379 64:0.017241379 65:0.083055556 66:0.0083333338 67:0.11722222 68:0.07361111 69:0.033333335 70:0.067857146 71:0.027083334 72:0.014583333 73:0.047916666 74:0.054880951 75:0.125 76:0.056249999 77:0.056249999 78:0.03809524 79:0.05875 80:0.043749999 81:0.039861113 82:0.016666668 83:0.016666668 84:0.016666668 85:0.099550761 86:0.011792453 87:0.014150944 88:0.028301887 89:0.098270439 90:0.030660378 91:0.042452831 93:0.091981135 94:0.014150944 95:0.029874213 96:0.028301887 97:0.027201258 98:0.08066038 99:0.11428571 100:0.033018868 101:0.033805031 102:0.040094338 103:0.098899372 104:0.021226415 #P82873
-3.3499580478901980207240285380976 1:0.13150001 2:0.24888889 3:0.16740741 4:0.28136882 5:0.061959647 6:0.039303306 7:0.020076746 8:0.024185725 9:0.047842346 10:0.079672471 11:0.08358597 12:0.027782723 13:0.023504727 14:0.043192703 15:0.1469194 16:0.029848311 17:0.022339011 18:0.036066718 19:0.085824117 20:0.026391575 21:0.06657172 22:0.0062105395 23:0.079096884 24:0.042993858 25:0.050462659 26:0.099986412 27:0.014903954 28:0.030519111 29:0.05397547 30:0.086189643 31:0.036307301 32:0.040835273 33:0.015004854 34:0.061398298 35:0.1542149 36:0.031237509 37:0.017652551 38:0.060108129 39:0.08384914 40:0.016211431 41:0.020018658 42:0.00047737479 43:0.023351125 44:0.10251866 45:0.026074585 46:0.0048652948 47:0.031222556 48:0.018789232 49:0.058785167 50:0.094027467 51:0.088736303 52:0.029065277 53:0.0097670462 54:0.0708718 55:0.19729128 56:0.046566281 57:0.023605267 58:0.042672195 59:0.052164324 60:0.013047363 61:0.08028359 62:0.0028901645 63:0.066170812 64:0.042176522 65:0.031378027 66:0.0078816116 67:0.030296946 68:0.023341896 69:0.056070354 70:0.085798994 71:0.087135129 72:0.031315573 73:0.011393378 74:0.063041136 75:0.18695304 76:0.044442993 77:0.028629951 78:0.040493198 79:0.058550943 80:0.018196234 81:0.076384075 82:0.0059922361 83:0.07289207 84:0.038463991 85:0.06263984 86:0.031443458 87:0.010814377 88:0.0032326127 89:0.053310506 90:0.071825787 91:0.10931116 92:0.026882781 93:0.046217449 94:0.029003417 95:0.10887437 96:0.0065739942 97:0.011574411 98:0.034593672 99:0.12263564 100:0.035748266 101:0.078504331 102:0.0017898119 103:0.088022962 104:0.062660307 #Q8NGU1
-6 1:0.222 2:-0.10222222 3:-0.16666667 4:0.0045045046 5:0.07953503 6:0.023794001 7:0.080267981 8:0.033043027 9:0.08648137 10:0.028276248 11:0.021994194 12:0.020211 13:0.037237044 14:0.014032125 15:0.10680584 16:0.017033998 17:0.04805477 18:0.086196914 19:0.083424531 20:0.073472574 21:0.055022351 22:0.016309328 23:0.043061238 24:0.025676042 25:0.085839599 26:0.029788012 27:0.077443607 28:0.027558479 29:0.098318711 30:0.037828948 31:0.02247807 32:0.013523391 33:0.040752925 34:0.015167004 35:0.12928978 36:0.020833334 37:0.03442318 38:0.095195375 39:0.062018208 40:0.080383249 41:0.037280701 42:0.01754386 43:0.038802024 44:0.030153509 45:0.063492067 46:0.011111111 47:0.058174603 48:0.041388888 49:0.11805555 50:0.045833334 51:0.011111111 52:0.020833334 53:0.068055555 54:0.027777778 55:0.077777781 57:0.050000001 58:0.055714287 59:0.06277778 60:0.069047622 61:0.022817461 62:0.033333335 63:0.066269845 64:0.025 65:0.063492067 66:0.011111111 67:0.058174603 68:0.041388888 69:0.11805555 70:0.045833334 71:0.011111111 72:0.020833334 73:0.068055555 74:0.027777778 75:0.077777781 77:0.050000001 78:0.055714287 79:0.06277778 80:0.069047622 81:0.022817461 82:0.033333335 83:0.066269845 84:0.025 85:0.11666667 86:0.016666668 87:0.075000003 88:0.058333334 89:0.1 90:0.0041666669 91:0.0125 92:0.0041666669 93:0.0625 95:0.12916666 96:0.016666668 97:0.045833334 98:0.083333336 99:0.06666667 100:0.10416666 101:0.041666668 102:0.016666668 103:0.020833334 104:0.016666668 #Q9QZK7
6 1:0.14049999 2:0.04148148 3:0.19370371 4:0.25978649 5:0.059196319 6:0.0072527342 7:0.031629097 8:0.018960508 9:0.075148076 10:0.083929546 11:0.070699558 12:0.049655676 13:0.014653862 14:0.040463209 15:0.11793939 16:0.032993428 17:0.02463132 18:0.036634933 19:0.068501607 20:0.02439242 21:0.076809652 22:0.039375652 23:0.06313014 24:0.05126968 25:0.029138481 26:0.00098926376 27:0.041206136 28:0.032554515 29:0.11365583 30:0.089672849 31:0.041061047 32:0.081562549 33:0.0024525328 34:0.03696524 35:0.10203779 36:0.02647916 37:0.017735943 38:0.060432591 39:0.045408364 40:0.031687986 41:0.057447311 42:0.067571715 43:0.052161664 44:0.062258914 45:0.054787688 46:0.00088829669 47:0.020006863 48:0.02549541 49:0.041538667 50:0.03675019 51:0.056733843 52:0.057160966 53:0.017822536 54:0.089071855 55:0.098384365 56:0.074283257 57:0.024546308 58:0.055540133 59:0.09095908 60:0.033144396 61:0.07201416 62:0.030091051 63:0.032364365 64:0.075748883 65:0.052259274 66:0.00084388186 67:0.022339854 68:0.02422064 69:0.041887894 70:0.041207768 71:0.059350058 72:0.057518516 73:0.018112162 74:0.089860193 75:0.096850201 76:0.071307495 77:0.023951903 78:0.053511731 79:0.088404797 80:0.031487178 81:0.071713775 82:0.028586498 83:0.033730019 84:0.072488867 85:0.053980906 86:0.016903987 87:0.016007543 88:0.019931011 89:0.097464725 90:0.11900327 91:0.077144831 92:0.091870092 93:0.012962002 94:0.01219245 95:0.10374911 96:0.013866861 97:0.015851814 98:0.0029922128 99:0.047788847 100:0.021560946 101:0.043801777 102:0.073992379 103:0.10096228 104:0.057289857 #P80441
6 1:0.17649999 2:-0.1274074 3:-0.2211111 4:0.028328612 5:0.076570794 6:0.010645688 7:0.059204098 8:0.05928953 9:0.057117984 10:0.044995259 11:0.043504249 12:0.019306697 13:0.055895165 14:0.01537852 15:0.10872754 16:0.031327654 17:0.044492215 18:0.067232206 19:0.074790105 20:0.0752391 21:0.036077954 22:0.014631329 23:0.054180261 24:0.033400383 25:0.08041694 26:0.011679161 27:0.02114179 28:0.063364103 29:0.088909477 30:0.041672301 31:0.011752718 32:0.011006027 33:0.033286929 34:0.012283957 35:0.19331165 36:0.015342589 37:0.019950287 38:0.10666218 39:0.06370391 40:0.13607137 41:0.025668584 42:0.018621273 43:0.03961385 44:0.0052316915 45:0.16486111 46:0.016666668 47:0.044113755 48:0.018783068 49:0.11388889 50:0.016666668 51:0.014880952 52:0.0037037036 53:0.030092593 54:0.018518519 55:0.09074074 56:0.0094907405 57:0.064907409 58:0.091666669 59:0.10759259 60:0.12199074 61:0.047129631 63:0.018750001 65:0.16486111 66:0.016666668 67:0.044113755 68:0.018783068 69:0.11388889 70:0.016666668 71:0.014880952 72:0.0037037036 73:0.030092593 74:0.018518519 75:0.09074074 76:0.0094907405 77:0.064907409 78:0.091666669 79:0.10759259 80:0.12199074 81:0.047129631 83:0.018750001 85:0.058185026 87:0.088751219 88:0.03351808 89:0.036561798 90:0.050830267 91:0.021753568 92:0.016675523 93:0.090147011 94:0.0094783157 95:0.10549568 96:0.033937458 97:0.082763709 98:0.055897359 99:0.092716783 100:0.1152517 101:0.019600648 102:0.017296392 103:0.041388266 104:0.014219736 #Q5RAJ8
-6 1:0.1095 2:-0.053703703 3:-0.18481481 5:0.069319084 6:0.015722038 7:0.068199016 8:0.059251752 9:0.060197476 10:0.042435899 11:0.058541633 12:0.013050904 13:0.07577458 14:0.02119527 15:0.072285138 16:0.041639052 17:0.04371031 18:0.032660514 19:0.076862752 20:0.063887961 21:0.058782209 22:0.0088314032 23:0.072508253 24:0.030368989 25:0.07733234 26:0.01097018 27:0.048570137 28:0.054344069 29:0.10174472 30:0.072975978 31:0.012955556 32:0.0016929379 33:0.079363182 34:0.03257275 35:0.086895227 36:0.024714068 37:0.025482843 38:0.022895383 39:0.075495303 40:0.0655476 41:0.08509694 42:0.00071672082 43:0.093186766 44:0.02513754 45:0.066450886 46:0.016127188 47:0.036880918 48:0.04876519 49:0.11470909 50:0.066634722 51:0.059482243 52:0.0092510972 53:0.062817827 54:0.027994204 55:0.072971568 56:0.025697542 57:0.022799002 58:0.043694995 59:0.096580826 60:0.047366273 61:0.055156998 62:0.0019768744 63:0.078192763 64:0.040430356 65:0.07144554 66:0.017930936 67:0.048906617 68:0.057921626 69:0.097797915 70:0.056872606 71:0.05273116 72:0.011107013 73:0.062556542 74:0.023604009 75:0.064722322 76:0.029892489 77:0.03095866 78:0.040245254 79:0.10373218 80:0.046295434 81:0.061335266 82:0.0017155523 83:0.07044974 84:0.035319407 85:0.071569681 86:0.017287886 87:0.080560625 88:0.032417461 89:0.021977801 90:0.056830775 91:0.051286567 92:0.0087715462 93:0.12662742 94:0.010480289 95:0.055821382 96:0.053703859 97:0.036091018 98:0.040509943 99:0.093922436 100:0.073994063 101:0.061666984 102:0.0078061693 103:0.07271859 104:0.0084460266 #P70426
-6 1:0.27149999 2:0.02111111 3:-0.13037036 4:0.018416205 5:0.080066249 6:0.013907659 7:0.059122581 8:0.050667204 9:0.076170087 10:0.033787183 11:0.059710555 12:0.021717414 13:0.050271261 14:0.023958571 15:0.081514359 16:0.031234749 17:0.029555734 18:0.046135876 19:0.053253394 20:0.04785217 21:0.060106654 22:0.013122278 23:0.073326349 24:0.033512499 25:0.05178421 26:0.0020255235 27:0.069244727 28:0.10051867 29:0.2131761 30:0.0054442324 31:0.024833271 32:0.02131444 33:0.051919185 34:0.025272138 35:0.050254669 36:0.0024955226 37:0.0081708981 38:0.064085498 39:0.037535951 40:0.044898808 41:0.12957633 42:0.0013625543 43:0.045228396 44:0.041786417 45:0.11205306 46:0.010997458 47:0.054784685 48:0.053135861 49:0.049006443 50:0.045843877 51:0.061135221 52:0.017218243 53:0.04150039 54:0.031126015 55:0.091042809 56:0.043333258 57:0.023037493 58:0.014750782 59:0.062422868 60:0.041725185 61:0.085485548 62:0.0088711316 63:0.079239912 64:0.034499131 65:0.10308068 66:0.012519537 67:0.059144512 68:0.044958215 69:0.051707655 70:0.036447976 71:0.043215144 72:0.024111638 73:0.048085473 74:0.023766261 75:0.08267682 76:0.046068922 77:0.031584915 78:0.011774414 79:0.062265407 80:0.055811755 81:0.066286512 82:0.0072192079 83:0.060744464 84:0.026498895 85:0.076063775 86:0.0068659312 87:0.064871326 88:0.033609889 89:0.05766375 90:0.024568226 91:0.093319096 92:0.0048758592 93:0.11557404 94:0.024217542 95:0.12307074 96:0.031393684 97:0.021435682 98:0.062559426 99:0.055195689 100:0.081928857 101:0.050531093 102:0.0051652445 103:0.043667648 104:0.017434888 #P38137
2.5794466811728296029571083636256 1:0.241 2:-0.11111111 3:0.13370371 4:0.029045643 5:0.073052868 6:0.012792793 7:0.070681676 8:0.056365598 9:0.076552451 10:0.041458692 11:0.05830415 12:0.027032984 13:0.046369214 14:0.037611753 15:0.089300498 16:0.030257134 17:0.030160848 18:0.052261993 19:0.047010519 20:0.069072887 21:0.056217574 22:0.015500028 23:0.064225703 24:0.03905046 25:0.060510028 26:0.011063893 27:0.081851415 28:0.067266673 29:0.12890348 30:0.037258815 31:0.042506386 32:0.032329496 33:0.038494907 34:0.013253064 35:0.061572086 36:0.024313269 37:0.018598357 38:0.079887271 39:0.043686483 40:0.12096661 41:0.052950885 42:0.012072629 43:0.028441101 44:0.041186444 45:0.10052083 46:0.016666668 47:0.029166667 48:0.016666668 49:0.083333336 50:0.033333335 51:0.033333335 52:0.0171875 53:0.06666667 54:0.033333335 55:0.06666667 56:0.033333335 57:0.033333335 58:0.050000001 59:0.083333336 60:0.08229167 61:0.1375 62:0.033333335 63:0.033333335 64:0.016666668 65:0.10052083 66:0.016666668 67:0.029166667 68:0.016666668 69:0.083333336 70:0.033333335 71:0.033333335 72:0.0171875 73:0.06666667 74:0.033333335 75:0.06666667 76:0.033333335 77:0.033333335 78:0.050000001 79:0.083333336 80:0.08229167 81:0.1375 82:0.033333335 83:0.033333335 84:0.016666668 85:0.069755226 86:0.0033616975 87:0.028784536 88:0.081836328 89:0.108905 90:0.042021222 91:0.088489689 92:0.024652449 93:0.04248298 94:0.037293833 95:0.081311062 96:0.021325769 97:0.021819748 98:0.044962708 99:0.069965333 100:0.071110658 101:0.032601465 102:0.0021710964 103:0.081241027 104:0.045908183 #Q93873
6 1:0.19750001 2:-0.057037037 3:-0.1162963 4:0.015189873 5:0.051160339 6:0.0033453887 7:0.052802894 8:0.061392404 9:0.054912597 10:0.045283303 11:0.051959012 12:0.022814948 13:0.063502111 14:0.016772151 15:0.10299879 16:0.047197107 17:0.032052442 18:0.062085595 19:0.072046414 20:0.063215792 21:0.053541292 22:0.018490054 23:0.051356237 24:0.026582278 25:0.045320198 27:0.066256158 28:0.06182266 29:0.066543512 30:0.037643678 31:0.038834155 32:0.0067733992 33:0.054679804 34:0.013054187 35:0.15283251 36:0.050369456 37:0.039039411 38:0.10123153 39:0.047249589 40:0.069704436 41:0.031609196 42:0.029433498 43:0.033497538 44:0.022577997 45:0.056093626 47:0.016949153 48:0.09039548 49:0.11299435 50:0.032889426 51:0.020480227 52:0.021791767 53:0.052966103 54:0.021186441 55:0.10805085 56:0.053268764 58:0.10875706 59:0.089285716 60:0.042776432 61:0.072740115 62:0.027845036 63:0.048022598 64:0.018563358 65:0.055158731 67:0.016666668 68:0.088888891 69:0.11111111 70:0.034722224 71:0.024900794 72:0.021428572 73:0.052083332 74:0.020833334 75:0.11101191 76:0.052380953 78:0.10694444 79:0.087797619 80:0.042063493 81:0.073908731 82:0.027380953 83:0.049603175 84:0.018253969 85:0.031746034 87:0.10651629 88:0.088137008 89:0.029239766 90:0.026942356 91:0.080409355 92:0.0058479533 93:0.058479533 94:0.0050125313 95:0.11946533 96:0.031954888 97:0.03508772 98:0.081453636 99:0.06787803 100:0.058270678 101:0.068922304 102:0.036967419 103:0.044277359 104:0.023391813 #Q751V6
-6 1:0.1015 2:-0.053703703 3:-0.13740741 4:0.049261082 5:0.064520292 6:0.0014074595 7:0.073680505 8:0.051911797 9:0.0480882 10:0.034834623 11:0.045285009 12:0.02233169 13:0.041637346 14:0.027562749 15:0.088775508 16:0.056181092 17:0.055700213 18:0.050082102 19:0.088130422 20:0.071287826 21:0.055887874 22:0.0075064506 23:0.055735398 24:0.016291345 25:0.066230156 27:0.080952384 28:0.01904762 29:0.032380953 30:0.03626984 31:0.058769841 32:0.016666668 33:0.06666667 34:0.038492065 35:0.14051588 36:0.021825397 37:0.069007933 38:0.063888893 39:0.075238094 40:0.08293651 41:0.047222223 43:0.052936509 44:0.028571429 45:0.099444441 47:0.015555556 48:0.021666666 49:0.061111111 50:0.058333334 51:0.057777777 52:0.036666665 53:0.027777778 54:0.019444445 55:0.078333333 56:0.050000001 57:0.072777778 58:0.025 59:0.11722222 60:0.084444441 61:0.077777781 62:0.011111111 63:0.06277778 64:0.0033333334 65:0.099444441 67:0.015555556 68:0.021666666 69:0.061111111 70:0.058333334 71:0.057777777 72:0.036666665 73:0.027777778 74:0.019444445 75:0.078333333 76:0.050000001 77:0.072777778 78:0.025 79:0.11722222 80:0.084444441 81:0.077777781 82:0.011111111 83:0.06277778 84:0.0033333334 85:0.04272959 87:0.10416666 88:0.099489793 89:0.0051020407 90:0.020408163 91:0.047831632 92:0.012755102 93:0.08545918 94:0.035714287 95:0.16645408 96:0.077806123 97:0.046556123 98:0.010204081 99:0.080357142 100:0.06122449 101:0.025297619 102:0.015306123 103:0.038265307 104:0.012117347 #P38428
-6 1:0.15449999 2:-0.10037037 3:-0.11851852 4:0.019417476 5:0.10943905 6:0.014023732 7:0.060409926 8:0.054692555 9:0.052427184 10:0.025674218 11:0.044228695 12:0.026968716 13:0.060733549 14:0.021898597 15:0.080960087 16:0.040668823 17:0.058252428 18:0.076483279 19:0.063160732 20:0.035275079 21:0.069525354 22:0.0032362461 23:0.045091692 24:0.042826321 25:0.10327381 26:0.013095238 27:0.065476194 28:0.057142857 29:0.055833332 30:0.026190476 31:0.03797619 32:0.029761905 33:0.064880952 34:0.02202381 35:0.087202378 36:0.043452382 37:0.064285718 38:0.075297616 39:0.058333334 40:0.036904763 41:0.062619045 42:0.0035714286 43:0.039999999 44:0.045833334 45:0.11527777 46:0.030555556 47:0.030555556 48:0.047222223 49:0.019444445 50:0.030555556 51:0.03888889 52:0.047222223 53:0.083333336 54:0.055555556 55:0.10416666 57:0.069444448 58:0.091666669 59:0.040277779 60:0.058333334 61:0.045833334 63:0.030555556 64:0.050000001 65:0.11527777 66:0.030555556 67:0.030555556 68:0.047222223 69:0.019444445 70:0.030555556 71:0.03888889 72:0.047222223 73:0.083333336 74:0.055555556 75:0.10416666 77:0.069444448 78:0.091666669 79:0.040277779 80:0.058333334 81:0.045833334 83:0.030555556 84:0.050000001 85:0.13333334 86:0.016666668 87:0.050000001 88:0.07333333 89:0.056666669 90:0.026666667 91:0.029999999 93:0.059999999 95:0.11666667 96:0.016666668 97:0.083333336 98:0.050000001 99:0.043333333 100:0.056666669 101:0.083333336 103:0.046666667 104:0.056666669 #Q9CR26
6 1:0.1935 2:0.029629629 3:-0.26407409 4:0.018087855 5:0.067501061 6:0.011086857 7:0.064817913 8:0.060545504 9:0.053472608 10:0.041323017 11:0.039265923 12:0.017834369 13:0.055120688 14:0.018907702 15:0.10556607 16:0.031000704 17:0.051681846 18:0.063135251 19:0.081598416 20:0.07230296 21:0.038402665 22:0.013182824 23:0.058504716 24:0.035146516 25:0.074540541 26:0.018618619 27:0.026226098 28:0.090188004 29:0.050150663 30:0.027921941 31:0.0086048329 32:0.0099199768 33:0.024447408 34:0.019493833 35:0.17800719 36:0.011427936 37:0.018018018 38:0.087737799 39:0.10065808 40:0.10551151 41:0.03751047 42:0.017727405 43:0.071112968 44:0.020096673 45:0.125 46:0.033333335 47:0.020833334 48:0.037500001 49:0.065277778 50:0.0083333338 51:0.0125 53:0.0074999998 54:0.036666665 55:0.125 57:0.03888889 58:0.074166663 59:0.15416667 60:0.10666667 61:0.054166667 63:0.083333336 64:0.016666668 65:0.125 66:0.033333335 67:0.020833334 68:0.037500001 69:0.065277778 70:0.0083333338 71:0.0125 73:0.0074999998 74:0.036666665 75:0.125 77:0.03888889 78:0.074166663 79:0.15416667 80:0.10666667 81:0.054166667 83:0.083333336 84:0.016666668 85:0.054593664 87:0.079320349 88:0.044232313 89:0.04720692 90:0.041969631 91:0.027598999 92:0.022427453 93:0.087969966 94:0.010844265 95:0.096283674 96:0.032187171 97:0.086614661 98:0.031888835 99:0.07867039 100:0.13242319 101:0.016357459 102:0.020915033 103:0.041528184 104:0.017967485 #Q6NWD4
5.6635183865053022600477561354637 1:0.1415 2:-0.05888889 3:-0.022962963 5:0.084644012 6:0.0095602674 7:0.039260827 8:0.052039832 9:0.097614698 10:0.049326051 11:0.040176779 12:0.016175894 13:0.082307167 14:0.0075775422 15:0.090520009 16:0.061346684 17:0.026064532 18:0.021366874 19:0.081874393 20:0.020439869 21:0.094434664 22:0.011397492 23:0.058490731 24:0.035433844 25:0.07132069 26:0.001674277 27:0.0152207 28:0.069254182 29:0.14202487 30:0.042237442 31:0.025181305 32:0.015905632 33:0.11111111 34:0.011872146 35:0.081251681 36:0.086377472 37:0.0019025875 38:0.048903059 39:0.047400773 40:0.0099853044 41:0.077670336 42:0.015265467 43:0.04888083 44:0.070776254 45:0.074524432 46:0.011890838 47:0.035575047 48:0.066276804 49:0.10489346 50:0.051287223 51:0.028265107 52:0.011208577 53:0.11062378 54:0.019103315 55:0.073899306 56:0.031189084 57:0.010233918 58:0.028557505 59:0.092831217 60:0.01863615 61:0.10369362 62:0.00048732944 63:0.058597162 64:0.035575047 65:0.074964881 66:0.011296296 67:0.035648149 68:0.063888893 69:0.10011175 70:0.050111748 71:0.027314816 72:0.010648148 73:0.1087963 74:0.018148148 75:0.071593232 76:0.037962962 77:0.0097222226 78:0.02712963 79:0.093745209 80:0.017704342 81:0.10915709 82:0.00046296295 83:0.059833974 84:0.037037037 85:0.097659647 86:0.0065913373 87:0.03153922 88:0.040575244 89:0.10558246 90:0.028386271 91:0.042524014 92:0.021563089 93:0.094889574 94:0.0023540489 95:0.14010191 96:0.048493408 97:0.035096731 98:0.028288942 99:0.089758329 100:0.02259887 101:0.060414787 102:0.0047634873 103:0.066695943 104:0.026836159 #P07144
-1.3958914730355294064878535209573 1:0.27399999 2:0.028518518 3:-0.32703704 4:0.063868612 5:0.066024035 6:0.025872666 7:0.049023118 8:0.05269631 9:0.050958242 10:0.04337405 11:0.038787033 12:0.026849059 13:0.032887943 14:0.021853855 15:0.084588274 16:0.043915451 17:0.032033361 18:0.063026361 19:0.067256354 20:0.065497562 21:0.055228785 22:0.028009737 23:0.05234623 24:0.033251561 25:0.058937814 26:0.060890682 27:0.039733462 28:0.10176725 29:0.079945415 30:0.028695991 31:0.003802994 32:0.033717565 33:0.012279551 34:0.026544256 35:0.064693399 36:0.039198238 37:0.024584692 38:0.12320039 39:0.052176919 40:0.092514537 41:0.054697562 42:0.068368673 43:0.014717734 44:0.006927304 45:0.1028764 46:0.04702102 47:0.011892318 48:0.00060024008 49:0.022309078 50:0.044256777 51:0.031540893 52:0.0044342582 53:0.028898498 54:0.057857562 55:0.083003782 56:0.0060975607 57:0.0040816325 58:0.097702704 59:0.069913559 60:0.074009493 61:0.086215816 62:0.053391468 63:0.071978919 64:0.027816424 65:0.092216946 66:0.04700258 67:0.0137771 68:0.0033357246 69:0.025597129 70:0.050149679 71:0.03733005 72:0.005247327 73:0.026416931 74:0.05129651 75:0.091042809 76:0.0062093497 77:0.005792683 78:0.081833221 79:0.075664274 80:0.064041555 81:0.083937459 82:0.046967983 83:0.076559432 84:0.037507847 85:0.0625 87:0.077777781 88:0.15972222 89:0.050000001 90:0.025 91:0.0125 92:0.0041666669 93:0.025 94:0.0083333338 95:0.037500001 96:0.054166667 97:0.037500001 98:0.070833333 99:0.11111111 100:0.087499999 101:0.037500001 102:0.033333335 103:0.025 104:0.0041666669 #Q4WZL8
-6 1:0.154 2:-0.18111111 3:-0.27592593 5:0.075499162 6:0.01389173 7:0.054843619 8:0.052536845 9:0.07656423 10:0.033831943 11:0.040097818 12:0.01772772 13:0.066603929 14:0.021237282 15:0.07913994 16:0.03830044 17:0.043215435 18:0.038393006 19:0.084794983 20:0.08388415 21:0.053709935 22:0.010406842 23:0.055064216 24:0.020781441 25:0.068368569 26:0.015322775 27:0.029353876 28:0.04930567 29:0.11327808 30:0.067512557 31:0.006118584 32:0.017065043 33:0.0580463 34:0.016554696 35:0.083024718 36:0.04364932 37:0.0058330921 38:0.055958863 39:0.093191192 40:0.11792701 41:0.049980145 42:0.00037396472 43:0.071971707 44:0.014884595 45:0.088829271 46:0.0026525198 47:0.034820065 48:0.029153606 49:0.1474369 51:0.0047021941 52:0.025808962 53:0.012147335 54:0.03409091 55:0.06873443 56:0.021220159 57:0.05128004 58:0.095001116 59:0.083077841 60:0.13322282 61:0.056697614 62:0.016666668 63:0.015432843 64:0.0026525198 65:0.090996504 66:0.0025641026 67:0.033659395 68:0.028181817 69:0.14252234 71:0.0045454544 72:0.024948662 73:0.011742424 74:0.032954544 75:0.066443279 76:0.021794872 77:0.052134808 78:0.094398521 79:0.084154733 80:0.1351923 81:0.059935898 82:0.016111111 83:0.016200466 84:0.0025641026 85:0.078206107 86:0.030529246 87:0.015139974 88:0.022931198 89:0.027017588 90:0.047396455 91:0.035645779 92:0.025206946 93:0.16645747 94:0.016860155 95:0.10196742 96:0.052072849 97:0.022162581 98:0.016693676 99:0.097828493 100:0.15695009 101:0.011572234 102:0.0032608695 103:0.048748195 104:0.0039549912 #O88667
6 1:0.076499999 2:-0.056296296 3:0.047037035 4:0.084967323 5:0.092574313 6:0.0077243019 7:0.078325406 8:0.04001458 9:0.082341149 10:0.018452717 11:0.047700923 12:0.0057320609 13:0.064246528 14:0.022266151 15:0.12960711 16:0.042059388 17:0.051941395 18:0.028784579 19:0.054059755 20:0.073640957 21:0.029698424 22:0.0079772081 23:0.063824601 24:0.05510357 25:0.10923521 27:0.058718674 28:0.021495229 29:0.12197182 30:0.030699149 31:0.032136492 33:0.016934047 34:0.015597148 35:0.22091503 36:0.033868093 37:0.057932265 38:0.038324419 39:0.026737968 40:0.05882353 41:0.0036541889 42:0.019607844 43:0.0236341 44:0.10873441 45:0.080136098 46:0.0033670033 47:0.084006891 48:0.045660462 49:0.056584362 50:0.024905136 51:0.040492065 52:0.005298079 53:0.05157394 54:0.018284699 55:0.12547746 56:0.041025724 57:0.087903626 58:0.047886271 59:0.07497713 60:0.038399871 61:0.04087954 62:0.018518519 63:0.068522528 64:0.044042982 65:0.082273014 66:0.0030303029 67:0.086093426 68:0.048249301 69:0.0516835 70:0.02468735 71:0.039918795 72:0.0062834225 73:0.054972697 74:0.022516835 75:0.11559361 76:0.042731233 77:0.089268737 78:0.04537037 79:0.074297599 80:0.040199615 81:0.039064314 82:0.016666668 83:0.069379725 84:0.045867641 85:0.11454979 86:0.00090909092 87:0.052727271 88:0.042727273 89:0.13613419 90:0.013160839 91:0.06680686 92:0.0027272727 93:0.05958819 94:0.019685648 95:0.15143523 96:0.042878788 97:0.029090909 98:0.020909091 99:0.024447553 100:0.091647245 101:0.012181818 102:0.0044102566 103:0.086073592 104:0.023575757 #Q7S8M1
6 1:0.148 2:0.20999999 3:0.22518519 4:0.22635135 5:0.053977638 6:0.016079472 7:0.034185972 8:0.030827703 9:0.056603927 10:0.056459136 11:0.089177124 12:0.0062942407 13:0.040681306 14:0.020173745 15:0.13295528 16:0.045037001 17:0.033281051 18:0.041445464 19:0.083075933 20:0.025780244 21:0.035935488 22:0.014337999 23:0.053684041 24:0.044099905 25:0.02827381 26:0.014802632 27:0.013157895 28:0.052631579 29:0.10142544 30:0.057252508 31:0.046522558 33:0.04299812 34:0.014802632 35:0.1637218 36:0.063909777 37:0.041118421 38:0.062030077 39:0.12296366 40:0.024671054 41:0.024592731 42:0.024122806 43:0.017982457 44:0.079260655 45:0.043776106 46:0.026065163 47:0.025898078 48:0.027568921 49:0.065664157 50:0.06616541 51:0.11879699 53:0.040935673 54:0.024561403 55:0.16223893 56:0.062406015 57:0.035923142 58:0.037593983 59:0.1081036 60:0.020885548 61:0.02631579 62:0.032581452 63:0.05196324 64:0.022556391 65:0.048730157 66:0.031904761 67:0.024603175 68:0.026190476 69:0.071904764 70:0.065238096 71:0.11523809 73:0.03888889 74:0.028095238 75:0.1636508 76:0.059285715 77:0.034126986 78:0.035714287 79:0.10746032 80:0.019841271 81:0.025 82:0.030952381 83:0.051746033 84:0.021428572 85:0.058333334 86:0.011111111 87:0.025 88:0.035416666 89:0.068055555 90:0.11805555 91:0.11041667 92:0.0027777778 93:0.05138889 94:0.016666668 95:0.15416667 96:0.046527777 97:0.020833334 98:0.018750001 99:0.087499999 100:0.0055555557 101:0.045138888 102:0.013888889 103:0.045833334 104:0.064583331 #P38279
4.0707848247928293261566068395041 1:0.1505 2:0.042962965 3:0.10740741 4:0.096345514 5:0.14051348 6:0.0221062 7:0.019727582 8:0.024353463 9:0.073854461 10:0.037959933 11:0.062859111 12:0.0086616715 13:0.033294208 14:0.017723 15:0.1162221 16:0.018211875 17:0.017256573 18:0.064291731 19:0.052733652 20:0.070590854 21:0.050278734 22:0.037269101 23:0.060869206 24:0.026762918 25:0.16550583 26:0.033027966 27:0.015027323 28:0.050104469 29:0.1017721 30:0.019853003 31:0.018075159 32:0.010519125 33:0.04350806 34:0.0097396336 35:0.12387339 36:0.014225954 37:0.024849003 38:0.10104736 39:0.036610197 40:0.099985391 41:0.038470432 42:0.032852586 43:0.028808335 44:0.030014053 45:0.19166666 46:0.058333334 47:0.016666668 49:0.10833333 50:0.0083333338 53:0.0083333338 54:0.016666668 55:0.17916666 58:0.095833331 59:0.029166667 60:0.18333334 61:0.0083333338 62:0.058333334 63:0.037500001 65:0.19166666 66:0.058333334 67:0.016666668 69:0.10833333 70:0.0083333338 73:0.0083333338 74:0.016666668 75:0.17916666 78:0.095833331 79:0.029166667 80:0.18333334 81:0.0083333338 82:0.058333334 83:0.037500001 85:0.10801454 86:0.014060092 87:0.0098870052 88:0.033898305 89:0.055237748 90:0.040969815 91:0.10736146 92:0.011723164 93:0.075995661 94:0.015078901 95:0.10017018 96:0.017430786 97:0.043855269 98:0.014595103 99:0.048650008 100:0.021421846 101:0.089389414 102:0.036133692 103:0.074293785 104:0.069511004 #Q9UJA2
-3.2670309085496445078433680464514 1:0.22499999 2:-0.088148147 3:-0.072962962 5:0.081346802 6:0.02929293 7:0.059259258 8:0.043905724 9:0.077777781 10:0.040067341 11:0.038787879 12:0.02929293 13:0.052929293 14:0.023030303 15:0.11353535 16:0.026464647 17:0.040336702 18:0.0410101 19:0.052053872 20:0.049158249 21:0.037575759 22:0.01050505 23:0.044646464 24:0.057373736 25:0.092803031 26:0.027146464 27:0.041666668 28:0.038510103 29:0.15277778 30:0.054292928 31:0.032196969 32:0.043560605 33:0.041035354 34:0.023358585 35:0.15151516 36:0.025883839 37:0.0069444445 38:0.051136363 39:0.035984848 40:0.038510103 41:0.015151516 42:0.015151516 43:0.026515152 44:0.085227273 45:0.083861873 46:0.0042283298 47:0.11486962 48:0.033826638 49:0.095842145 50:0.045806907 52:0.023255814 53:0.057082452 54:0.069767445 55:0.10007047 56:0.031712472 57:0.01268499 58:0.052854124 59:0.031712472 60:0.054968286 61:0.046511628 63:0.014799154 64:0.031712472 65:0.094949491 66:0.012121212 67:0.097474746 68:0.028787879 69:0.082323231 70:0.035858586 71:0.0015151515 72:0.016666668 73:0.045454547 74:0.050000001 75:0.077777781 76:0.027272727 77:0.015151516 78:0.046969697 79:0.037878789 80:0.046969697 81:0.046969697 83:0.013636364 84:0.027272727 85:0.090909094 86:0.039393939 87:0.06969697 88:0.070202023 89:0.066161618 90:0.1010101 91:0.024242423 92:0.021212121 93:0.043939393 94:0.01969697 95:0.099494949 96:0.0090909088 97:0.023737373 98:0.059090909 99:0.06161616 100:0.065656565 101:0.037878789 102:0.010606061 103:0.033333335 104:0.051515151 #Q9NS86
-0.54324039862551520840838747972157 1:0.039999999 2:0.16148148 3:0.17925926 4:0.1875 5:0.050520834 6:0.013221726 7:0.05182923 8:0.017045455 9:0.036284722 10:0.059263393 11:0.083767362 12:0.037263259 13:0.025189394 14:0.076996528 15:0.10685764 16:0.016335227 17:0.035677083 18:0.027083334 19:0.072803028 20:0.023871528 21:0.053906251 22:0.02890625 23:0.083035715 24:0.091808714 25:0.010135135 27:0.057432432 28:0.023648649 29:0.027027028 30:0.079391889 31:0.030405406 32:0.027027028 33:0.040540539 34:0.082770273 35:0.11993244 36:0.027027028 37:0.032094594 38:0.054054055 39:0.081081077 40:0.0067567569 41:0.079391889 42:0.057432432 43:0.0067567569 44:0.1570946 45:0.056249999 46:0.0093750004 47:0.03996212 48:0.022727273 49:0.018750001 50:0.047916666 51:0.096874997 52:0.027462121 53:0.028030302 54:0.08229167 55:0.11354167 56:0.021780303 57:0.035416666 58:0.033333335 59:0.055681817 60:0.028124999 61:0.051041666 62:0.035416666 63:0.088541664 64:0.10748106 65:0.056249999 66:0.0093750004 67:0.03996212 68:0.022727273 69:0.018750001 70:0.047916666 71:0.096874997 72:0.027462121 73:0.028030302 74:0.08229167 75:0.11354167 76:0.021780303 77:0.035416666 78:0.033333335 79:0.055681817 80:0.028124999 81:0.051041666 82:0.035416666 83:0.088541664 84:0.10748106 85:0.064236112 86:0.017628968 87:0.062476851 89:0.04837963 90:0.065476194 91:0.092939816 92:0.03888889 93:0.0055555557 94:0.074537039 95:0.097685188 96:0.016666668 97:0.027777778 98:0.036111113 99:0.079930559 100:0.021412037 101:0.071874999 102:0.019791666 103:0.085714288 104:0.061805554 #Q66J05
-1.2231803988943033001390858771629 1:0.072999999 2:-0.0011111111 3:0.017037038 4:0.11643836 5:0.14611872 6:0.025114154 7:0.01369863 8:0.018264839 9:0.12557077 10:0.01369863 11:0.045662101 12:0.011415525 13:0.022831051 14:0.018264839 15:0.089041099 16:0.04109589 17:0.01369863 18:0.011415525 19:0.14840183 20:0.093607306 21:0.066210046 22:0.025114154 23:0.038812786 24:0.02739726 25:0.15217391 26:0.032608695 28:0.010869565 29:0.14130434 30:0.010869565 31:0.065217391 32:0.010869565 33:0.021739131 34:0.010869565 35:0.11956522 36:0.021739131 38:0.010869565 39:0.14130434 40:0.086956523 41:0.054347824 42:0.032608695 43:0.032608695 44:0.043478262 45:0.15000001 46:0.027777778 48:0.0055555557 49:0.15555556 50:0.0055555557 51:0.011111111 53:0.022222223 54:0.016666668 55:0.11666667 56:0.016666668 57:0.011111111 58:0.011111111 59:0.13333334 60:0.15555556 61:0.055555556 62:0.022222223 63:0.06666667 64:0.016666668 65:0.15000001 66:0.027777778 68:0.0055555557 69:0.15555556 70:0.0055555557 71:0.011111111 73:0.022222223 74:0.016666668 75:0.11666667 76:0.016666668 77:0.011111111 78:0.011111111 79:0.13333334 80:0.15555556 81:0.055555556 82:0.022222223 83:0.06666667 84:0.016666668 85:0.03888889 86:0.033333335 87:0.011111111 88:0.016666668 89:0.11111111 90:0.027777778 91:0.1 92:0.016666668 93:0.033333335 94:0.027777778 95:0.083333336 96:0.044444446 97:0.011111111 98:0.016666668 99:0.2 100:0.033333335 101:0.088888891 102:0.022222223 103:0.022222223 104:0.050000001 #A2BDG5
6 1:0.2335 2:-0.2751852 3:-0.18185185 4:0.0042826552 5:0.050499644 6:0.0048179873 7:0.068165593 8:0.05745896 9:0.039614562 10:0.059957173 11:0.036581013 12:0.025339043 13:0.085831545 14:0.017487509 15:0.089400426 16:0.034618128 17:0.05745896 18:0.044610992 19:0.090471089 20:0.049072091 21:0.049785867 22:0.018558173 23:0.046395432 24:0.037473232 25:0.026294498 26:0.0020226538 27:0.055825241 28:0.066747576 29:0.062297735 30:0.083737865 31:0.01658576 32:0.018203884 33:0.099919096 34:0.011731392 35:0.10679612 36:0.02144013 37:0.059466019 38:0.061893202 39:0.076456308 40:0.043284789 41:0.044902913 42:0.026699029 43:0.052184466 44:0.056229774 45:0.06666667 47:0.12361111 48:0.087499999 49:0.06666667 50:0.037500001 51:0.0069444445 52:0.0083333338 53:0.083333336 54:0.020833334 55:0.07361111 56:0.037500001 57:0.083333336 58:0.055555556 59:0.068055555 60:0.023611112 61:0.081944443 62:0.016666668 63:0.041666668 64:0.0125 65:0.06666667 67:0.12361111 68:0.087499999 69:0.06666667 70:0.037500001 71:0.0069444445 72:0.0083333338 73:0.083333336 74:0.020833334 75:0.07361111 76:0.037500001 77:0.083333336 78:0.055555556 79:0.068055555 80:0.023611112 81:0.081944443 82:0.016666668 83:0.041666668 84:0.0125 85:0.033333335 87:0.027777778 88:0.055555556 89:0.050000001 90:0.055555556 91:0.088888891 92:0.033333335 93:0.1 94:0.022222223 95:0.03888889 96:0.03888889 97:0.06666667 98:0.050000001 99:0.1 100:0.06666667 101:0.03888889 102:0.033333335 103:0.055555556 104:0.044444446 #Q02825
6 1:0.3705 2:0.0033333334 3:-0.21518518 4:0.01754386 5:0.065993652 6:0.018282011 7:0.081906103 8:0.048458949 9:0.044769559 10:0.046266306 11:0.048669558 12:0.026030207 13:0.062375441 14:0.027695987 15:0.10639867 16:0.044078436 17:0.053378589 18:0.029074727 19:0.07490015 20:0.052235581 21:0.051688664 22:0.011021143 23:0.071966633 24:0.018850448 25:0.064791985 26:0.021931177 27:0.087488443 28:0.046514295 29:0.056599896 30:0.08309707 31:0.043088511 32:0.020766992 33:0.06675569 34:0.016076015 35:0.11715117 36:0.022100668 37:0.038820408 38:0.037945557 39:0.067101523 40:0.050802946 41:0.043215204 42:0.014483822 43:0.069984592 44:0.022049306 45:0.090476193 46:0.0016666667 47:0.12333333 48:0.053333335 49:0.041666668 50:0.055 51:0.058518518 52:0.029629629 53:0.066296294 54:0.02 55:0.095185183 56:0.026666667 57:0.035185184 58:0.030714286 59:0.041666668 60:0.026851851 61:0.065476194 63:0.078333333 64:0.036666665 65:0.090476193 66:0.0016666667 67:0.12333333 68:0.053333335 69:0.041666668 70:0.055 71:0.058518518 72:0.029629629 73:0.066296294 74:0.02 75:0.095185183 76:0.026666667 77:0.035185184 78:0.030714286 79:0.041666668 80:0.026851851 81:0.065476194 83:0.078333333 84:0.036666665 85:0.055980861 87:0.10956938 88:0.048520289 89:0.024481658 90:0.029346092 91:0.046730462 92:0.013875598 93:0.086921848 94:0.016427433 95:0.14338118 96:0.064673044 97:0.10079744 98:0.014035088 99:0.10283537 100:0.044816587 101:0.042264752 102:0.0047846888 103:0.036682617 104:0.012121212 #Q811U4
6 1:0.227 2:-0.13814814 3:-0.12666667 4:0.015418503 5:0.063669734 6:0.020824989 7:0.087921061 8:0.039580829 9:0.040441863 10:0.043311976 11:0.04876741 12:0.023428114 13:0.056287546 14:0.028093712 15:0.11232368 16:0.039140303 17:0.069770388 18:0.027052462 19:0.073559381 20:0.063629687 21:0.046315577 22:0.011947671 23:0.063240334 24:0.02147021 25:0.053901851 26:0.031375702 27:0.095736124 28:0.028157683 29:0.049879324 30:0.082059532 31:0.026727451 32:0.036202736 33:0.052212391 34:0.012872084 35:0.11727899 36:0.0043800841 37:0.069187447 38:0.038616251 39:0.06569232 40:0.078037009 41:0.054706357 42:0.019308126 43:0.046661302 44:0.034593724 45:0.079338841 46:0.01983471 47:0.15371901 48:0.034710743 49:0.051239669 50:0.041322313 51:0.029752066 52:0.026446281 53:0.046280991 54:0.041322313 55:0.07272727 56:0.021487603 57:0.047933884 58:0.03305785 59:0.080991738 60:0.080991738 61:0.0099173551 63:0.097520664 64:0.01983471 65:0.074242428 66:0.018181818 67:0.14393939 68:0.033333335 69:0.051515151 70:0.037878789 71:0.028787879 72:0.033333335 73:0.042424243 74:0.037878789 75:0.07121212 76:0.031818181 77:0.048484847 78:0.033333335 79:0.083333336 80:0.083333336 81:0.018181818 82:0.0045454544 83:0.093939394 84:0.018181818 85:0.070480667 86:0.015673982 87:0.086328804 88:0.051201671 89:0.018756531 90:0.016144201 91:0.041605711 92:0.023510972 93:0.084796235 94:0.017711598 95:0.15978754 96:0.063427374 97:0.12450366 98:0.0017241379 99:0.056983631 100:0.048223615 101:0.052194357 102:0.010449321 103:0.053012889 104:0.0019157088 #Q9N6P4
6 1:0.16150001 2:-0.018888889 3:-0.032962963 4:0.043343652 5:0.058288988 6:0.012675937 7:0.050128672 8:0.03510185 9:0.057995766 10:0.040755559 11:0.055697735 12:0.020983988 13:0.061918546 14:0.018631887 15:0.09897624 16:0.035541385 17:0.03713781 18:0.055705439 19:0.066526614 20:0.064135425 21:0.071093194 22:0.020334681 23:0.055185534 24:0.02846225 25:0.0091452207 26:0.0125 27:0.036902573 28:0.021755515 29:0.10487133 30:0.070736706 31:0.039794259 32:0.036856618 33:0.054577205 34:0.025961539 35:0.1432261 36:0.048575368 37:0.016911766 38:0.10284927 39:0.017003676 40:0.085520364 41:0.049705882 42:0.057996325 43:0.016911766 44:0.038051471 45:0.081944443 46:0.03888889 48:0.023333333 49:0.045555554 50:0.045555554 51:0.054444443 52:0.0275 53:0.041111112 54:0.016666668 55:0.11444444 56:0.023333333 57:0.061944444 58:0.062222224 59:0.098888889 60:0.082777776 61:0.095555559 62:0.0055555557 63:0.043333333 64:0.023611112 65:0.081944443 66:0.03888889 68:0.023333333 69:0.045555554 70:0.045555554 71:0.054444443 72:0.0275 73:0.041111112 74:0.016666668 75:0.11444444 76:0.023333333 77:0.061944444 78:0.062222224 79:0.098888889 80:0.082777776 81:0.095555559 82:0.0055555557 83:0.043333333 84:0.023611112 85:0.073717952 86:0.010844513 87:0.033217233 88:0.028508771 89:0.075851396 90:0.049524028 91:0.080580696 92:0.0270104 93:0.047159046 94:0.019925378 95:0.097518258 96:0.042376161 97:0.029659839 98:0.045149639 99:0.047858618 100:0.047059815 101:0.097652219 102:0.030637255 103:0.051555928 104:0.053872947 #Q9N5N8
-2.9983744671832508466025046800496 1:0.26750001 2:-0.15074074 3:-0.31481481 5:0.076604024 6:0.026565343 7:0.087770432 8:0.059005417 9:0.064349383 10:0.024598856 11:0.044472788 12:0.017990168 13:0.064719923 14:0.016070923 15:0.13993707 16:0.051537532 17:0.034713246 18:0.024845544 19:0.085552558 20:0.041988429 21:0.048569843 22:0.0057669478 23:0.047090895 24:0.01293926 25:0.062584065 26:0.0020437471 27:0.10677471 28:0.053440616 29:0.079040416 30:0.016461566 31:0.044363603 32:0.0099527882 33:0.081271537 34:0.021080865 35:0.23414539 36:0.04012955 37:0.016680021 38:0.031944446 39:0.094773278 40:0.023305085 41:0.038578719 42:0.0094161956 43:0.01146798 44:0.017352704 45:0.06616541 46:0.0025062656 47:0.050125312 48:0.045112781 49:0.01754386 50:0.018379282 51:0.061403509 52:0.021929825 53:0.088345863 54:0.038011696 55:0.084377609 56:0.035714287 57:0.025689224 58:0.053007517 59:0.12510443 60:0.076649956 61:0.11190476 62:0.01754386 63:0.04043442 64:0.020050125 65:0.065238096 66:0.0023809525 67:0.054761905 68:0.042857144 69:0.016666668 70:0.017460318 71:0.058333334 72:0.020833334 73:0.091071427 74:0.036111113 75:0.080158733 76:0.033928573 77:0.031547621 78:0.055119049 79:0.13075396 80:0.07281746 81:0.11107143 82:0.016666668 83:0.043174602 84:0.01904762 85:0.025879828 86:0.013852814 87:0.21475993 88:0.11666372 89:0.093233965 90:0.03717434 91:0.02770016 92:0.0075757578 93:0.1018477 94:0.0052737682 95:0.10887457 96:0.037140891 97:0.045594253 98:0.015442739 99:0.051113736 100:0.01607254 101:0.033160172 103:0.03889735 104:0.0097417738 #Q9LE82
6 1:0.31349999 2:-0.10148148 3:-0.064444445 4:0.0079744812 5:0.069990754 6:0.017968841 7:0.053962715 8:0.052974507 9:0.048971679 10:0.048696622 11:0.042124085 12:0.026919607 13:0.062327653 14:0.027500184 15:0.10415768 16:0.03705183 17:0.047870558 18:0.049211584 19:0.075528108 20:0.051747818 21:0.051547855 22:0.014515829 23:0.05562821 24:0.034118723 25:0.043028072 26:0.0043718363 27:0.022353889 28:0.054993097 29:0.087436721 30:0.062816381 31:0.011965025 32:0.046249423 33:0.066530801 34:0.011965025 35:0.13572825 36:0.02945237 37:0.056552 38:0.088368617 39:0.052826352 40:0.078660183 41:0.053216241 42:0.028301887 43:0.024226619 44:0.03980672 45:0.037793968 46:0.0042648064 47:0.03101402 48:0.021357525 49:0.011710022 50:0.054409079 51:0.035760604 52:0.0049430551 53:0.090973444 54:0.06012563 55:0.13366304 56:0.027055025 57:0.076629519 58:0.089890189 59:0.11935189 60:0.039323919 61:0.05294355 62:0.012562347 63:0.050022338 64:0.031437442 65:0.043563403 66:0.0037672457 67:0.0301471 68:0.026328947 69:0.01447919 70:0.054445371 71:0.033139762 72:0.010754286 73:0.09554112 74:0.056309626 75:0.12338091 76:0.025118116 77:0.069786116 78:0.092099659 79:0.12096578 80:0.043750487 81:0.050211389 82:0.01109674 83:0.047361001 84:0.028695665 85:0.06699346 86:0.029442722 87:0.047231894 88:0.081602171 89:0.055677064 90:0.033635698 91:0.051277164 92:0.025985207 93:0.079381078 94:0.02153644 95:0.11225807 96:0.038584683 97:0.0042245369 98:0.050640181 99:0.095007807 100:0.02978245 101:0.042234622 102:0.0077098268 103:0.057456043 104:0.046715528 #Q00614
6 1:0.074000001 2:0.088148147 3:0.16481481 4:0.3108108 5:0.055253498 6:0.0083290599 7:0.052062754 8:0.035292499 9:0.052780885 10:0.096276864 11:0.093207337 12:0.0082213338 13:0.045343671 14:0.033066727 15:0.14460407 16:0.044218808 17:0.0099696647 18:0.051790964 19:0.053647354 20:0.022127395 21:0.042210475 22:0.022904454 23:0.055691235 24:0.059098613 25:0.048276942 26:0.025546081 27:0.093043841 28:0.025 29:0.050036214 30:0.17265595 31:0.08812505 32:0.0014705883 33:0.024882076 34:0.027192378 35:0.16882582 36:0.025589623 38:0.076760814 39:0.0054335101 40:0.02393868 41:0.0021655634 42:0.021102443 43:0.023551961 44:0.095723733 45:0.025294043 46:0.024075845 47:0.073590547 48:0.036543805 49:0.076425612 50:0.11054812 51:0.085923173 52:0.0087267682 53:0.036477324 54:0.038820188 55:0.14504255 56:0.046478171 57:0.0054169539 58:0.079330012 59:0.045502763 60:0.0042278105 61:0.016840562 62:0.0016154693 63:0.046434969 64:0.088697121 65:0.046621289 66:0.019985456 67:0.057681441 68:0.036685973 69:0.070402935 70:0.08591304 71:0.086674117 72:0.00704331 73:0.034512814 74:0.036649875 75:0.13772511 76:0.045934692 77:0.007593655 78:0.080264673 79:0.059717137 80:0.0057459422 81:0.03214081 82:0.006122292 83:0.055791438 84:0.069221176 85:0.04633126 86:0.0003664644 87:0.056882076 88:0.020816585 89:0.063929789 90:0.065601431 91:0.091005273 92:0.012352758 93:0.070718728 94:0.029869277 95:0.11386753 96:0.063126437 97:0.012099733 98:0.035603788 99:0.04588465 100:0.020452347 101:0.05565023 102:0.045659415 103:0.061967593 104:0.069236182 #P48913
6 1:0.064000003 2:0.17444444 3:0.19592592 4:0.328125 5:0.083059795 6:0.01058371 7:0.042313583 8:0.030313177 9:0.058840435 10:0.094956294 11:0.084277868 12:0.0026496532 13:0.040255774 14:0.032107819 15:0.16161068 16:0.022706954 17:0.010825988 18:0.047014814 19:0.052000325 20:0.034433123 21:0.039955888 22:0.032702282 23:0.061051987 24:0.040274348 25:0.084509879 26:0.022137467 27:0.055454545 28:0.027474748 29:0.078736849 30:0.1768548 31:0.037349574 32:0.001335578 33:0.053724032 34:0.031353585 35:0.21339041 36:0.001422013 37:0.00062127551 38:0.069671266 39:0.01431306 40:0.031251237 41:0.0040198341 42:0.0026962277 43:0.029589327 44:0.062990874 45:0.099386841 46:0.021285897 47:0.039688159 48:0.03030592 49:0.069195397 50:0.11651766 51:0.090370163 52:0.0025148848 53:0.03810022 54:0.032737505 55:0.13430406 56:0.016301166 57:0.010421413 58:0.058559585 59:0.068672635 60:0.037200786 61:0.024157185 62:0.012015394 63:0.053442094 64:0.042567722 65:0.098391578 66:0.02231014 67:0.035429496 68:0.02725907 69:0.062714003 70:0.10935328 71:0.087433137 72:0.0026133538 73:0.036539622 74:0.040627234 75:0.13715044 76:0.021849634 77:0.010234696 78:0.05360515 79:0.070014857 80:0.04079356 81:0.030378198 82:0.010613598 83:0.062143452 84:0.038282204 85:0.072888903 86:8.3640014e-05 87:0.038116887 88:0.024228938 89:0.071919158 90:0.066103563 91:0.056560803 92:0.0028041946 93:0.052124977 94:0.024057986 95:0.19878751 96:0.024378555 97:0.014555444 98:0.052702192 99:0.037615631 100:0.028503498 101:0.04996201 102:0.068945125 103:0.043075435 104:0.056277454 #A9RAG5
-1.3151592623129630954537105935742 1:0.071500003 2:0.18296297 3:0.16333333 4:0.27972028 5:0.10955711 6:0.016317016 7:0.051282052 8:0.034965035 9:0.067599066 10:0.09324009 11:0.058275059 12:0.0023310024 13:0.018648019 14:0.034965035 15:0.15617716 16:0.025641026 17:0.034965035 18:0.037296038 19:0.083916083 20:0.034965035 21:0.030303031 23:0.067599066 24:0.041958041 25:0.06779661 27:0.084745765 28:0.06779661 29:0.13559322 30:0.084745765 31:0.033898305 33:0.033898305 34:0.033898305 35:0.16949153 36:0.016949153 37:0.033898305 39:0.10169491 40:0.033898305 43:0.050847456 44:0.050847456 45:0.11666667 46:0.016666668 47:0.055555556 48:0.022222223 49:0.061111111 50:0.083333336 51:0.055555556 53:0.044444446 54:0.016666668 55:0.16666667 56:0.033333335 57:0.033333335 58:0.016666668 59:0.06666667 60:0.033333335 61:0.044444446 63:0.10555556 64:0.027777778 65:0.11666667 66:0.016666668 67:0.055555556 68:0.022222223 69:0.061111111 70:0.083333336 71:0.055555556 73:0.044444446 74:0.016666668 75:0.16666667 76:0.033333335 77:0.033333335 78:0.016666668 79:0.06666667 80:0.033333335 81:0.044444446 83:0.10555556 84:0.027777778 85:0.11666667 86:0.022222223 87:0.06666667 88:0.061111111 89:0.077777781 90:0.11111111 91:0.077777781 92:0.0055555557 94:0.055555556 95:0.13333334 96:0.022222223 97:0.016666668 98:0.044444446 99:0.088888891 100:0.027777778 101:0.027777778 103:0.03888889 104:0.0055555557 #Q74ZU2
-6 1:0.097000003 2:0.26296297 3:0.12222222 4:0.31443298 5:0.080386296 6:0.011850857 7:0.026165981 8:0.029237693 9:0.065749064 10:0.084482275 11:0.066258073 12:0.012369626 13:0.030516999 14:0.018407552 15:0.13601482 16:0.04883641 17:0.024448207 18:0.029315161 19:0.081895411 20:0.051604383 21:0.053335309 22:0.039288633 23:0.070187815 24:0.025079366 25:0.044799492 26:0.016787659 27:0.022115966 28:0.047999356 29:0.092003137 30:0.11867104 31:0.011659643 32:0.017659569 33:0.021957694 34:0.02568819 35:0.15050656 36:0.068522714 37:0.004624573 38:0.04819908 39:0.045524288 40:0.081902526 41:0.009648541 42:0.099638529 43:0.034997959 44:0.035755597 45:0.05345447 46:0.0030200928 47:0.02940505 48:0.0082885111 49:0.044648264 50:0.11324391 51:0.073846735 52:0.029581105 53:0.01666403 54:0.034194928 55:0.19780342 56:0.027450571 57:0.037644308 58:0.054212518 59:0.084374316 60:0.027536318 61:0.050251897 62:0.021039002 63:0.056656603 64:0.022412069 65:0.055523336 66:0.0091792196 67:0.030292949 68:0.0090421662 69:0.044241369 70:0.10089806 71:0.078282341 72:0.027839378 73:0.016001945 74:0.033264447 75:0.18413368 76:0.026930191 77:0.039342217 78:0.049276613 79:0.087429881 80:0.026482992 81:0.057181574 82:0.019461645 83:0.062749095 84:0.019797327 85:0.11878927 86:0.021929825 87:0.0047893235 88:0.01994874 89:0.099316567 90:0.086421929 91:0.066996053 92:0.00068587105 93:0.033153873 94:0.013097208 95:0.13925976 96:0.067075185 97:0.018576773 98:0.0025449425 99:0.071946546 100:0.064304024 101:0.05649263 102:0.018834241 103:0.064163916 104:0.022918729 #Q0UV43
-2.8892756720963133076907070062589 1:0.13349999 2:0.083703704 3:-0.085185185 4:0.16853933 5:0.063674957 6:0.0084111895 7:0.033572275 8:0.013220425 9:0.074977428 10:0.068265431 11:0.079227164 12:0.020982699 13:0.023758877 14:0.020484582 15:0.14936598 16:0.036060579 17:0.018062493 18:0.064247072 19:0.068566941 20:0.041314531 21:0.071310878 22:0.017924502 23:0.074015789 24:0.040538955 25:0.0031746032 27:0.050464418 28:0.0048076925 29:0.20218255 30:0.049319729 31:0.0067460318 32:0.069841273 33:0.0091269845 34:0.026785715 35:0.069926307 36:0.022222223 37:0.021541949 38:0.26370138 39:0.052380953 40:0.04647436 41:0.04920635 42:0.0223356 43:0.0075396826 44:0.020634921 45:0.054038133 46:0.0052447552 47:0.029120184 48:0.0032467532 49:0.023493553 50:0.069126897 51:0.09017624 52:0.0032467532 53:0.017936924 54:0.031149406 55:0.19115764 56:0.041566074 57:0.033545054 58:0.079229794 59:0.04881892 60:0.080767088 61:0.088851802 62:0.021976762 63:0.061915986 64:0.020271394 65:0.059316609 66:0.0063186814 67:0.027398759 68:0.019139195 69:0.034353148 70:0.068733349 71:0.092594445 72:0.0035714286 73:0.022769129 74:0.022842897 75:0.16820425 76:0.04724003 77:0.033024613 78:0.06167328 79:0.060342666 80:0.067562528 81:0.077245899 82:0.023442298 83:0.067474656 84:0.024664225 85:0.051116575 87:0.05728263 88:0.026910225 89:0.11208309 90:0.034887433 91:0.064584538 92:0.010233918 93:0.037449393 94:0.0036549708 95:0.11575413 96:0.031762097 97:0.015969411 98:0.094298244 99:0.075750276 100:0.055323135 101:0.077786349 102:0.020355375 103:0.070207573 104:0.037280701 #Q4I4A4
6 1:0.41249999 2:-0.19296296 3:-0.34777778 4:0.025454545 5:0.067023747 6:0.0039960495 7:0.087745696 8:0.049090255 9:0.065550394 10:0.037440401 11:0.06345208 12:0.014772011 13:0.075891428 14:0.022665938 15:0.088902183 16:0.050849121 17:0.036352564 18:0.050768137 19:0.060339376 20:0.061792433 21:0.047318321 22:0.0087236753 23:0.062804848 24:0.0234264 25:0.073990896 26:0.00040518728 27:0.10294437 28:0.051331516 29:0.086267121 30:0.025098657 31:0.048011091 32:0.014797854 33:0.079244614 34:0.0084727015 35:0.066936001 36:0.072035469 37:0.030530259 38:0.091359042 39:0.050279096 40:0.083921254 41:0.040342238 42:0.0073846271 43:0.040075213 44:0.024285169 45:0.033333335 47:0.050000001 48:0.033333335 49:0.033333335 50:0.016666668 51:0.033333335 52:0.033333335 53:0.083333336 54:0.016666668 55:0.15000001 56:0.1 57:0.033333335 58:0.016666668 59:0.083333336 60:0.11666667 61:0.050000001 62:0.016666668 63:0.050000001 64:0.050000001 65:0.033333335 67:0.050000001 68:0.033333335 69:0.033333335 70:0.016666668 71:0.033333335 72:0.033333335 73:0.083333336 74:0.016666668 75:0.15000001 76:0.1 77:0.033333335 78:0.016666668 79:0.083333336 80:0.11666667 81:0.050000001 82:0.016666668 83:0.050000001 84:0.050000001 85:0.038950812 86:0.0008622079 87:0.15557595 88:0.067212433 89:0.042501293 90:0.031341691 91:0.058297727 92:0.0098266769 93:0.11118972 94:0.011904373 95:0.084496319 96:0.052019723 97:0.025515417 98:0.082218356 99:0.052642453 100:0.043908153 101:0.065417133 102:0.013928572 103:0.021694895 104:0.01390895 #P40341
-4.404169150254217512951981916558 1:0.257 2:-0.079259261 3:0.00037037037 4:0.050583657 5:0.052739114 6:0.025275292 7:0.032756597 8:0.038849119 9:0.069176219 10:0.048663557 11:0.059797511 12:0.030084049 13:0.03721353 14:0.018354468 15:0.09572468 16:0.043237168 17:0.070191465 18:0.06172251 19:0.066290379 20:0.047689199 21:0.072464891 22:0.034740407 23:0.053511161 24:0.017938135 25:0.041722745 26:0.025078369 27:0.031056058 28:0.044567861 29:0.0847601 30:0.056096353 31:0.048343986 32:0.031661443 33:0.034482948 34:0.019963702 35:0.089386478 36:0.04982676 37:0.080112405 38:0.075249359 39:0.070053689 40:0.047737785 41:0.062613428 42:0.041329812 43:0.053186543 44:0.01245669 45:0.050000001 47:0.016666668 48:0.050000001 49:0.083333336 50:0.06666667 51:0.083333336 52:0.06666667 53:0.033333335 54:0.050000001 55:0.050000001 56:0.033333335 57:0.050000001 58:0.083333336 59:0.06666667 60:0.1 61:0.050000001 63:0.06666667 65:0.050000001 67:0.016666668 68:0.050000001 69:0.083333336 70:0.06666667 71:0.083333336 72:0.06666667 73:0.033333335 74:0.050000001 75:0.050000001 76:0.033333335 77:0.050000001 78:0.083333336 79:0.06666667 80:0.1 81:0.050000001 83:0.06666667 85:0.03888889 86:0.03888889 87:0.033333335 88:0.022222223 89:0.033333335 90:0.06666667 91:0.093333334 92:0.055555556 93:0.0055555557 94:0.02 95:0.11222222 96:0.022222223 97:0.11111111 98:0.088888891 99:0.10555556 100:0.03888889 101:0.028888889 102:0.011111111 103:0.045555554 104:0.027777778 #P60509
6 1:0.43200001 2:-0.14481482 3:-0.18962963 4:0.016203703 5:0.067049332 6:0.010256834 7:0.06505914 8:0.05378088 9:0.047231767 10:0.039665561 11:0.067081362 12:0.019462157 13:0.066311166 14:0.016385857 15:0.097214468 16:0.04374494 17:0.03784794 18:0.045105796 19:0.080502786 20:0.05812455 21:0.049918305 22:0.01441338 23:0.060547464 24:0.027054638 25:0.064859398 26:0.021896552 27:0.06654454 28:0.075696841 29:0.084625408 30:0.06775862 31:0.064935341 32:0.019655172 33:0.030516215 34:0.012335423 35:0.1260802 36:0.034834769 37:0.022155173 38:0.074655175 39:0.059268374 40:0.049489941 41:0.020914247 42:0.024827586 43:0.04850864 44:0.026778584 45:0.079096042 46:0.062953994 47:0.016949153 48:0.12348668 49:0.061339792 50:0.023910411 51:0.014043584 52:0.0056497175 53:0.03460452 54:0.033898305 55:0.077683613 56:0.06779661 57:0.017756255 58:0.094128326 59:0.15092817 60:0.065577075 61:0.021186441 62:0.010593221 63:0.038418081 65:0.077777781 66:0.061904762 67:0.016666668 68:0.12142857 69:0.064484127 70:0.023511905 71:0.013809524 72:0.0055555557 73:0.038194444 74:0.033333335 75:0.076388888 76:0.06666667 77:0.017460318 78:0.096726194 79:0.15049604 80:0.064484127 81:0.020833334 82:0.010416667 83:0.037777778 85:0.048204761 86:0.0049999999 87:0.11406191 88:0.021566667 89:0.047036365 90:0.0066 91:0.079299569 92:0.021833334 93:0.13824372 94:0.015625108 95:0.13981213 96:0.0277 97:0.047549494 98:0.020733334 99:0.074466668 100:0.06940303 101:0.020099999 102:0.0058333334 103:0.047997259 104:0.029066667 #Q2UBI2
-6 1:0.40450001 2:-0.15888889 3:-0.11333334 4:0.0012360939 5:0.076501384 6:0.0095905373 7:0.072467595 8:0.07217747 9:0.069398217 10:0.037220769 11:0.062369134 12:0.012227564 13:0.061082691 14:0.022540731 15:0.092267647 16:0.036880989 17:0.028761361 18:0.048072565 19:0.058951627 20:0.065179706 21:0.046986327 22:0.0032921098 23:0.06957119 24:0.018930867 25:0.094764769 26:0.0023896883 27:0.034751695 28:0.098189205 29:0.14312696 30:0.062643334 31:0.025644315 32:0.0021258949 33:0.056454945 34:0.014496904 35:0.086028382 36:0.037446663 37:0.0063262237 38:0.077304266 39:0.04128544 40:0.10658267 41:0.047217511 42:0.00085113733 43:0.037280377 44:0.020113451 45:0.072282493 46:0.0021186441 47:0.062683478 48:0.11378735 49:0.038685866 50:0.022569239 51:0.04372111 52:0.006212133 53:0.088289522 54:0.035972502 55:0.090981193 56:0.056219626 57:0.037655391 58:0.035434917 59:0.11804855 60:0.052351318 61:0.057476137 63:0.053166937 64:0.0055639422 65:0.071077786 66:0.0020833334 67:0.061638754 68:0.11397422 69:0.0380411 70:0.022193085 71:0.042992424 72:0.0061085974 73:0.086818032 74:0.035372961 75:0.089464843 76:0.0594493 77:0.039111134 78:0.034844335 79:0.11608107 80:0.051478796 81:0.060684867 83:0.056447487 84:0.00547121 85:0.07731121 86:0.00018274854 87:0.050989352 88:0.098534904 89:0.12249517 90:0.068475612 91:0.009492171 92:0.0024244639 93:0.025308594 94:0.006037435 95:0.047389485 96:0.055201642 97:0.053927589 98:0.033502918 99:0.13148981 100:0.043674927 101:0.05520191 102:0.0089858789 103:0.033605054 104:0.041721109 #P54609
-1.2007328610706546889730361726834 1:0.156 2:-0.035185184 3:-0.025925925 4:0.03846154 5:0.06343016 6:0.012406514 7:0.046806347 8:0.043397892 9:0.065333039 10:0.037555326 11:0.044998322 12:0.036457315 13:0.045727719 14:0.014184319 15:0.11214574 16:0.044838093 17:0.041158866 18:0.065913171 19:0.0812902 20:0.041312072 21:0.048238564 22:0.019555157 23:0.059506748 24:0.030823525 25:0.04125848 26:0.00079443894 27:0.054111984 28:0.0034610527 29:0.11883956 30:0.014454775 31:0.007628764 32:0.067734458 33:0.0016984557 34:0.0031777557 35:0.16727078 36:0.045361102 37:0.057668697 38:0.10150099 39:0.080349714 40:0.043009281 41:0.025667038 42:0.051232066 43:0.037403453 44:0.068305455 45:0.090987355 46:0.02401281 47:0.024036914 48:0.033091381 49:0.070271827 50:0.016111623 51:0.061441995 52:0.025044085 53:0.031832408 54:0.01959049 55:0.094809368 56:0.03937516 57:0.038384121 58:0.082826063 59:0.089082107 60:0.03441795 61:0.025918888 62:0.054935783 63:0.050031066 64:0.035259344 65:0.0835649 66:0.020208577 67:0.041438468 68:0.047978412 69:0.071116634 70:0.018592142 71:0.049824718 72:0.029923016 73:0.044266295 74:0.016987801 75:0.082238413 76:0.044068232 77:0.046689678 78:0.068644896 79:0.086973615 80:0.034365233 81:0.026155718 82:0.041767724 83:0.047778286 84:0.026036063 85:0.07959529 86:0.018210528 87:0.023930345 88:0.024369413 89:0.063258961 90:0.020895388 91:0.030994127 92:0.01626035 93:0.018763 94:0.019114457 95:0.20740966 96:0.045163091 97:0.043854855 98:0.11055471 99:0.061439324 100:0.090867698 101:0.035397153 102:0.0049656513 103:0.06272582 104:0.0018611975 #P22748
-5.0327121875069815715164622815792 1:0.12899999 2:-0.19518518 3:-0.095185183 4:0.007751938 5:0.079559997 6:0.013178295 7:0.089759164 8:0.045798518 9:0.074191526 10:0.038898397 11:0.058057878 12:0.025581395 13:0.07717485 14:0.02419712 15:0.11366447 16:0.033930108 17:0.059776753 18:0.023958297 19:0.050392911 20:0.046227504 21:0.036826741 22:0.015539113 23:0.062905915 24:0.026011778 25:0.051953126 26:0.017045455 27:0.098102681 28:0.050334822 29:0.11722696 30:0.056178976 31:0.057102274 32:0.022798296 33:0.052501578 34:0.019389205 35:0.12846236 36:0.027201705 37:0.042240769 38:0.036718749 39:0.038387783 40:0.048524305 41:0.012144886 42:0.029758522 43:0.0546875 44:0.037109375 45:0.10944445 47:0.10166667 48:0.036666665 49:0.062962964 50:0.035 51:0.047592591 52:0.035 53:0.14185186 54:0.039999999 55:0.088333331 56:0.028333334 57:0.078333333 58:0.0018518518 59:0.035 60:0.068518519 61:0.036666665 63:0.034444444 64:0.016666668 65:0.10944445 67:0.10166667 68:0.036666665 69:0.062962964 70:0.035 71:0.047592591 72:0.035 73:0.14185186 74:0.039999999 75:0.088333331 76:0.028333334 77:0.078333333 78:0.0018518518 79:0.035 80:0.068518519 81:0.036666665 83:0.034444444 84:0.016666668 85:0.11554233 86:0.0066666668 87:0.12732804 88:0.044206351 89:0.035 90:0.025899472 91:0.035238095 92:0.021666666 93:0.048333332 94:0.012380952 95:0.13890873 96:0.025899472 97:0.056130953 98:0.042380951 99:0.064113759 100:0.042380951 101:0.035476189 102:0.051666666 103:0.030899471 104:0.034880951 #Q96H20
6 1:0.116 2:0.1562963 3:0.19888888 4:0.33189654 5:0.1104875 6:0.0099891489 7:0.028040351 8:0.01520979 9:0.059290063 10:0.062428664 11:0.089390449 12:0.016415481 13:0.021054232 14:0.042823628 15:0.14258409 16:0.022118399 17:0.028338758 18:0.037430171 19:0.075948909 20:0.038474958 21:0.052387267 22:0.04581324 23:0.06539081 24:0.030877743 25:0.094207026 26:0.00094966759 27:0.01743935 28:0.023914358 29:0.09534663 30:0.046195574 31:0.058446765 32:0.024691358 33:0.0028490028 34:0.047690582 35:0.16592324 36:0.012345679 37:0.034346312 38:0.069705606 39:0.057125386 40:0.025705775 41:0.06069959 42:0.0767648 43:0.041588727 44:0.043114908 45:0.10627817 46:0.013333334 47:0.0038461538 48:0.018717948 49:0.0560323 50:0.0599223 51:0.073363855 52:0.018717948 53:0.016739927 54:0.04423077 55:0.14385948 56:0.016153846 57:0.053034186 58:0.05794872 59:0.089263514 60:0.033919413 61:0.031410258 62:0.020404041 63:0.070699304 64:0.063333333 65:0.10627817 66:0.013333334 67:0.0038461538 68:0.018717948 69:0.0560323 70:0.0599223 71:0.073363855 72:0.018717948 73:0.016739927 74:0.04423077 75:0.14385948 76:0.016153846 77:0.053034186 78:0.05794872 79:0.089263514 80:0.033919413 81:0.031410258 82:0.020404041 83:0.070699304 84:0.063333333 85:0.072222225 86:0.0060606059 87:0.072525255 88:0.010606061 89:0.032196969 90:0.068434343 91:0.09407407 92:0.024242423 93:0.019797979 94:0.046994951 95:0.17028619 96:0.014242425 97:0.034747474 98:0.034217171 99:0.1069697 100:0.059722222 101:0.075000003 102:0.014646465 103:0.024452861 104:0.0060606059 #P92527
1.6598327783815332026051692082547 1:0.092500001 2:0.39777777 3:0.074074075 4:0.4054054 5:0.068046495 6:0.0092439167 7:0.030160159 8:0.025766892 9:0.052722637 10:0.070888311 11:0.11609947 12:0.015502715 13:0.02401273 14:0.02975936 15:0.14410368 16:0.044000067 17:0.032307379 18:0.020032564 19:0.07108739 20:0.030564306 21:0.043024752 22:0.0075895432 23:0.089510538 24:0.034981035 25:0.095874093 26:0.0045698923 28:0.0018305172 29:0.12973495 30:0.12482174 31:0.068290353 32:0.0035370684 33:0.00042444823 34:0.067317486 35:0.16494097 36:0.031409167 37:0.025806451 38:0.00084889645 39:0.06617552 40:0.036482334 41:0.026254481 43:0.11984801 44:0.031833615 45:0.084481955 46:0.017484641 47:0.013903842 48:0.0071770335 49:0.057136294 50:0.10464121 51:0.11617762 52:0.0058983667 53:0.0051947152 54:0.032855667 55:0.1912674 56:0.038490623 57:0.01057555 58:0.0211403 59:0.077639528 60:0.0052202763 61:0.025671875 62:0.0022686026 63:0.12086048 64:0.060716707 65:0.088202216 66:0.01735227 67:0.016143084 68:0.0073882495 69:0.057838611 70:0.10186239 71:0.11230503 72:0.0071201939 73:0.0050215581 74:0.031760477 75:0.18985637 76:0.037562214 77:0.01057764 78:0.020435624 79:0.083811365 80:0.0050462675 81:0.028036388 82:0.0021929825 83:0.11763686 84:0.058692817 85:0.074756213 86:0.0030395137 87:0.039036017 88:0.039721988 89:0.035132978 90:0.060808152 91:0.11438546 92:0.036131587 93:0.029479785 94:0.020391172 95:0.16830108 96:0.022058353 97:0.050825994 98:0.0183086 99:0.053945977 100:0.072147869 101:0.036069192 102:0.0039007093 103:0.066258416 104:0.028024921 #O63849
-1.7181037405054588873554166639224 1:0.122 2:-0.099629633 3:-0.062962964 5:0.082943805 6:0.018433807 7:0.058850855 8:0.060637135 9:0.076492526 10:0.040362861 11:0.053662796 12:0.013992227 13:0.063737303 14:0.02015548 15:0.074889466 16:0.041333482 17:0.045447472 18:0.040429652 19:0.063742533 20:0.055133328 21:0.054586954 22:0.0091717271 23:0.066118881 24:0.02886964 25:0.080564663 26:0.041760907 27:0.041829385 28:0.089527205 29:0.14267692 30:0.079607941 31:0.009724129 32:0.0070863091 33:0.083604604 34:0.019560531 35:0.048304435 36:0.040870022 37:0.0210521 38:0.018303392 39:0.030514922 40:0.041674741 41:0.063610598 42:0.03917855 43:0.053957012 44:0.045180943 45:0.12674803 46:0.0083641633 47:0.012414602 48:0.058465183 49:0.17452428 50:0.021825647 51:0.031195506 52:0.0088125803 53:0.053427093 54:0.029000096 55:0.10570742 56:0.0092177978 57:0.027059725 58:0.056992646 59:0.071854085 60:0.054135948 61:0.031495273 62:3.7639264e-05 63:0.06221658 64:0.020893842 65:0.12736093 66:0.0079060076 67:0.016608993 68:0.058053415 69:0.15947281 70:0.021243082 71:0.029914029 72:0.010378866 73:0.057861492 74:0.026466753 75:0.099867173 76:0.014501642 77:0.033003647 78:0.06160371 79:0.073509105 80:0.052830402 81:0.033457059 82:0.00048848527 83:0.059298828 84:0.019337792 85:0.098205581 86:0.073237069 87:0.061844524 88:0.029368209 89:0.018957615 90:0.04049525 91:0.05621817 92:0.0058558858 93:0.076692067 94:0.0095141297 95:0.04525914 96:0.079602569 97:0.035836581 98:0.10811044 99:0.073329099 100:0.034557853 101:0.051169984 102:0.0013736264 103:0.065231904 104:0.0021947362 #Q6IQ22
-6 1:0.12899999 2:0.32407406 3:0.074074075 4:0.36821705 5:0.074335545 6:0.0055370987 7:0.040808417 8:0.018438539 9:0.072379105 10:0.064174972 11:0.093189366 12:0.019933555 13:0.021871539 14:0.021871539 15:0.15705056 16:0.037329271 17:0.014608712 18:0.052131783 19:0.055693984 20:0.037338503 21:0.059606865 22:0.020487264 23:0.079494275 24:0.036332596 25:0.07079082 27:0.073979594 29:0.11951531 30:0.06122449 31:0.041241497 32:0.033163264 33:0.020408163 34:0.020408163 35:0.18643707 36:0.015943877 37:0.0025510204 38:0.10905612 39:0.035714287 40:0.039285716 41:0.058035713 42:0.035714287 43:0.025510205 44:0.048469387 45:0.074175827 47:0.061813187 48:0.013736264 49:0.051282052 50:0.067307696 51:0.12912089 53:0.012362638 54:0.031593408 55:0.21382783 56:0.029304029 57:0.014652015 58:0.03021978 59:0.044184983 60:0.059981685 61:0.057005495 62:0.024725275 63:0.07188645 64:0.012820513 65:0.071428575 67:0.060714286 68:0.016666668 69:0.058730159 70:0.063095242 71:0.12142857 72:0.0047619049 73:0.013095238 74:0.027380953 75:0.19246031 76:0.034920637 77:0.017460318 78:0.030952381 79:0.052579366 80:0.05436508 81:0.058928572 82:0.033333335 83:0.074206352 84:0.013492064 85:0.06219212 87:0.04236453 88:0.040147785 89:0.10110837 90:0.04039409 91:0.082019702 92:0.0098522166 93:0.044334974 94:0.0049261083 95:0.11773399 96:0.041256156 97:0.027216749 98:0.069334976 99:0.080049261 100:0.038423646 101:0.036699507 102:0.019704433 103:0.069950737 104:0.058990147 #Q9P375
-0.70823799008958099321375811996404 1:0.2595 2:-0.11407407 3:0.098518521 4:0.17919075 5:0.078509077 6:0.016094299 7:0.029572206 8:0.020704284 9:0.070893981 10:0.060344864 11:0.079217985 12:0.015669771 13:0.041104909 14:0.032601055 15:0.090477929 16:0.031702258 17:0.024611479 18:0.060664106 19:0.075951725 20:0.035646591 21:0.066820666 22:0.024674192 23:0.080760531 24:0.03676204 25:0.073207594 26:0.0079119364 27:0.039215688 28:0.007038713 29:0.097917803 30:0.054007567 31:0.04747162 32:0.012727899 33:0.0319153 34:0.031991743 35:0.058347225 36:0.019951841 37:0.020983832 38:0.13953057 39:0.10151741 40:0.065900467 41:0.09393771 42:0.025138261 43:0.03731047 44:0.030959751 45:0.050000001 47:0.06666667 48:0.016666668 49:0.033333335 50:0.033333335 51:0.083333336 53:0.016666668 54:0.016666668 55:0.050000001 57:0.016666668 58:0.2 59:0.15000001 60:0.083333336 61:0.15000001 62:0.016666668 63:0.016666668 65:0.050000001 67:0.06666667 68:0.016666668 69:0.033333335 70:0.033333335 71:0.083333336 73:0.016666668 74:0.016666668 75:0.050000001 77:0.016666668 78:0.2 79:0.15000001 80:0.083333336 81:0.15000001 82:0.016666668 83:0.016666668 85:0.055890575 86:0.029114075 87:0.010482938 88:0.0037774725 89:0.054393902 90:0.062404312 91:0.097404145 92:0.0063110264 93:0.090036757 94:0.034238312 95:0.11364015 96:0.038700223 97:0.016038045 98:0.08067397 99:0.067241117 100:0.033604562 101:0.017389344 102:0.04899976 103:0.076307498 104:0.050003402 #Q9SX98
-2.2671996840688204422065155085875 1:0.071500003 2:0.2751852 3:0.13666667 4:0.33566433 5:0.08857809 6:0.011655011 7:0.030303031 8:0.051282052 9:0.065268062 10:0.1025641 11:0.1002331 12:0.0046620048 13:0.016317016 14:0.027972028 15:0.13752913 16:0.030303031 17:0.020979021 18:0.046620045 19:0.090909094 20:0.027972028 21:0.025641026 23:0.065268062 24:0.048951048 25:0.056603774 27:0.03773585 28:0.056603774 29:0.13207547 30:0.094339624 31:0.056603774 33:0.018867925 34:0.03773585 35:0.18867925 37:0.018867925 38:0.03773585 39:0.11320755 40:0.03773585 43:0.056603774 44:0.056603774 45:0.1 46:0.016666668 47:0.027777778 48:0.011111111 49:0.03888889 50:0.083333336 51:0.11111111 53:0.03888889 54:0.016666668 55:0.15000001 56:0.033333335 57:0.016666668 58:0.072222225 59:0.077777781 60:0.016666668 61:0.03888889 63:0.11111111 64:0.03888889 65:0.1 66:0.016666668 67:0.027777778 68:0.011111111 69:0.03888889 70:0.083333336 71:0.11111111 73:0.03888889 74:0.016666668 75:0.15000001 76:0.033333335 77:0.016666668 78:0.072222225 79:0.077777781 80:0.016666668 81:0.03888889 83:0.11111111 84:0.03888889 85:0.083333336 86:0.011111111 87:0.044444446 88:0.11111111 89:0.088888891 90:0.12222222 91:0.11666667 92:0.011111111 94:0.044444446 95:0.083333336 96:0.027777778 97:0.016666668 98:0.03888889 99:0.083333336 100:0.022222223 101:0.022222223 103:0.044444446 104:0.011111111 #Q03860
-3.4858762130156235592437496961793 1:0.2115 2:-0.19444445 3:-0.12037037 4:0.014184397 5:0.048966102 6:0.016364727 7:0.05978943 8:0.05404954 9:0.048730277 10:0.041444808 11:0.057670999 12:0.030128434 13:0.0737781 14:0.024662355 15:0.096075244 16:0.046714786 17:0.038773812 18:0.054101426 19:0.07314036 20:0.056029491 21:0.049858708 22:0.0090334201 23:0.060043857 24:0.032010186 25:0.038405824 26:0.017582903 27:0.053300504 28:0.063418962 29:0.078676157 30:0.033854447 31:0.036753036 32:0.046628699 33:0.087895349 34:0.012170387 35:0.081752427 36:0.064404927 37:0.048906114 38:0.057949595 39:0.063153088 40:0.069112487 41:0.033494417 42:0.0082028415 43:0.065779403 44:0.028144294 45:0.020619659 46:0.029166667 47:0.050000001 48:0.068055555 49:0.018055556 50:0.045833334 51:0.053055555 52:0.016203703 53:0.093319088 54:0.027207978 55:0.019444445 56:0.080726497 57:0.070555553 58:0.059259258 59:0.092970088 60:0.06638889 61:0.084615387 63:0.078055553 65:0.020619659 66:0.029166667 67:0.050000001 68:0.068055555 69:0.018055556 70:0.045833334 71:0.053055555 72:0.016203703 73:0.093319088 74:0.027207978 75:0.019444445 76:0.080726497 77:0.070555553 78:0.059259258 79:0.092970088 80:0.06638889 81:0.084615387 83:0.078055553 85:0.068876259 86:0.0068746707 87:0.065650523 88:0.045998201 89:0.047322735 90:0.046510022 91:0.031193197 92:0.055675499 93:0.076703176 94:0.03234987 95:0.091443636 96:0.069615848 97:0.032344531 98:0.058726616 99:0.1265621 100:0.029092768 101:0.018581964 102:0.0094577493 103:0.032613758 104:0.034451023 #A4IIW7
-6 1:0.156 2:-0.04148148 3:0.014074074 4:0.03846154 5:0.062579274 6:0.012953377 7:0.047482226 8:0.042567745 9:0.064453542 10:0.038722456 11:0.044871382 12:0.036920801 13:0.046573922 14:0.013743132 15:0.11014587 16:0.045167577 17:0.042932745 18:0.062189151 19:0.080690689 20:0.038556922 21:0.048123471 22:0.018861648 23:0.058825452 24:0.033361524 25:0.023361024 26:0.017689394 27:0.052782498 28:0.002852998 29:0.12670109 30:0.012651134 31:0.0097888093 32:0.067474186 33:0.0035837435 34:0.0024621212 35:0.12696435 36:0.047999222 37:0.057667598 38:0.14208364 39:0.08185523 40:0.055071726 41:0.02406089 42:0.050189395 43:0.033073213 44:0.052438281 45:0.097288363 46:0.029841496 47:0.027556224 48:0.032590613 49:0.064506762 50:0.023159917 51:0.05788153 52:0.028885324 53:0.036846526 54:0.02213154 55:0.10092551 56:0.047525495 57:0.054035652 58:0.077241279 59:0.086178124 60:0.033510521 61:0.024984946 62:0.050780185 63:0.035757452 64:0.034071624 65:0.083924502 66:0.02215258 67:0.040459312 68:0.042150281 69:0.065308712 70:0.020663185 71:0.05235257 72:0.036314249 73:0.048255209 74:0.017176656 75:0.08872059 76:0.046761651 77:0.054188441 78:0.06481494 79:0.087717332 80:0.030682988 81:0.026500102 82:0.040539075 83:0.041183595 84:0.025383519 85:0.081783623 86:0.021978389 87:0.018899877 88:0.017246613 89:0.066448577 90:0.031681899 91:0.029116809 92:0.010231273 93:0.01902164 94:0.01555063 95:0.19930026 96:0.049837295 97:0.043879215 98:0.10248045 99:0.058704838 100:0.083699234 101:0.03837594 102:0.00056980056 103:0.077512361 104:0.012466282 #Q95323
-0.32512778184463764219458425941411 1:0.398 2:0.011111111 3:-0.17962962 4:0.045226131 5:0.039416868 6:0.020964252 7:0.053609714 8:0.04706011 9:0.036830835 10:0.051107101 11:0.053490825 12:0.028492108 13:0.051617999 14:0.017419456 15:0.15326159 16:0.058989048 17:0.039141197 18:0.033354502 19:0.087049559 20:0.046018273 21:0.04737813 22:0.013100651 23:0.054694667 24:0.023086684 25:0.025149642 26:0.048718117 27:0.02764282 28:0.060236041 29:0.019689066 30:0.059603643 31:0.02372558 32:0.0036744883 33:0.034521811 34:0.013393357 35:0.36411062 36:0.10789581 37:0.0061265952 38:0.042835012 39:0.055097774 40:0.014442577 41:0.0052655349 42:0.027232507 43:0.033510752 44:0.020018077 45:0.029847564 46:0.028643459 47:0.047992229 48:0.063257225 49:0.046971705 50:0.04091021 51:0.084799655 52:0.021292195 53:0.062983491 54:0.029417105 55:0.12914948 56:0.032558922 57:0.021182036 58:0.055521149 59:0.12185328 60:0.041383062 61:0.053664912 62:0.00089285715 63:0.069335587 64:0.0095702428 65:0.037445407 66:0.027491471 67:0.046705313 68:0.062803112 69:0.051223516 70:0.041410323 71:0.084059723 72:0.019872716 73:0.060697157 74:0.03035897 75:0.12550412 76:0.036573123 77:0.022399681 78:0.055098426 79:0.11797712 80:0.041778684 81:0.050906923 82:0.0011065573 83:0.067069776 84:0.0089322273 85:0.046598367 86:0.013494349 87:0.068760492 88:0.03021978 89:0.018994894 90:0.031015757 91:0.03736949 92:0.012524241 93:0.1025794 94:0.017870925 95:0.1248953 96:0.05373751 97:0.045054909 98:0.049816851 99:0.065493941 100:0.09116964 101:0.049455769 102:0.039749876 103:0.054986425 104:0.029601648 #Q9Y2C9
-6 1:0.308 2:-0.27814814 3:-0.28555554 5:0.059725907 6:0.0050134929 7:0.072051771 8:0.059480801 9:0.034940708 10:0.032659829 11:0.057084583 12:0.02079121 13:0.05963796 14:0.015049015 15:0.083524793 16:0.059408661 17:0.038367026 18:0.048492085 19:0.087677769 20:0.051913008 21:0.050046351 22:0.0076769548 23:0.041150413 24:0.029162094 25:0.015406162 26:0.0019607844 27:0.053396359 28:0.067507006 29:0.013620448 30:0.063759752 31:0.079047397 32:0.0013368984 33:0.044298895 34:0.019611027 35:0.16263275 36:0.04569646 37:0.017674958 38:0.14520308 39:0.068754777 40:0.082214572 41:0.0027374586 42:0.039740898 43:0.017182328 44:0.04911435 45:0.079365082 46:0.0029239766 47:0.042606518 48:0.13241437 49:0.058897242 50:0.05764411 51:0.014619883 52:0.011695907 53:0.0058479533 54:0.020467836 55:0.022974102 56:0.085630745 57:0.017126149 58:0.092314117 59:0.11716792 60:0.040935673 61:0.050960734 62:0.013157895 63:0.021720968 64:0.040935673 65:0.080158733 66:0.0027777778 67:0.045238096 68:0.13055556 69:0.060714286 70:0.054761905 71:0.013888889 72:0.011111111 73:0.0055555557 74:0.019444445 75:0.021825397 76:0.083730161 77:0.018650794 78:0.094841272 79:0.11130952 80:0.03888889 81:0.050793651 82:0.0125 83:0.023015874 84:0.03888889 85:0.057434402 86:0.0082604466 87:0.11875607 88:0.093521215 89:0.0040816325 90:0.031972788 91:0.071428575 92:0.0068027209 93:0.10382248 94:0.01723356 95:0.09180434 96:0.071234211 97:0.042565599 98:0.0027210885 99:0.069452547 100:0.048720442 101:0.030644638 102:0.039455783 103:0.056073859 104:0.03265306 #Q7SB54
6 1:0.25049999 2:-0.29296297 3:-0.25999999 4:0.023952097 5:0.069172479 6:0.0054850122 7:0.085934326 8:0.056609396 9:0.056355376 10:0.040560186 11:0.03809372 12:0.01518819 13:0.078883827 14:0.022376101 15:0.08456108 16:0.031525694 17:0.048919518 18:0.06730298 19:0.075338304 20:0.054541692 21:0.04130068 22:0.012294868 23:0.040174246 24:0.036327831 25:0.031369612 26:0.00081753993 27:0.087313995 28:0.085252233 29:0.050660875 30:0.033615205 31:0.016754707 32:0.0098312274 33:0.099897839 34:0.010368114 35:0.147626 36:0.013177855 37:0.015109094 38:0.13546802 39:0.073724538 40:0.074600682 41:0.026331522 42:0.0082880436 43:0.042016428 44:0.028477948 45:0.10527778 46:0.0041666669 47:0.086666666 48:0.039999999 49:0.0083333338 50:0.024444444 52:0.0055555557 53:0.13500001 54:0.016666668 55:0.022222223 56:0.0099999998 57:0.044166666 58:0.15166667 59:0.15888889 60:0.031944446 61:0.037500001 62:0.0125 63:0.032499999 64:0.039166667 65:0.10527778 66:0.0041666669 67:0.086666666 68:0.039999999 69:0.0083333338 70:0.024444444 72:0.0055555557 73:0.13500001 74:0.016666668 75:0.022222223 76:0.0099999998 77:0.044166666 78:0.15166667 79:0.15888889 80:0.031944446 81:0.037500001 82:0.0125 83:0.032499999 84:0.039166667 85:0.060233101 87:0.14657342 88:0.024801865 89:0.087978691 90:0.048642267 91:0.044356856 92:0.0072727273 93:0.11066751 94:0.069379106 95:0.057744678 96:0.033294585 97:0.088450946 98:0.017948719 99:0.023812551 100:0.044289045 101:0.022445433 102:0.012121212 103:0.0077134985 104:0.029090909 #Q4WI16
-1.7660076547166050353609989542747 1:0.4025 2:0.011111111 3:-0.028888889 4:0.069565214 5:0.093860619 6:0.021755653 7:0.033379395 8:0.031790581 9:0.078542762 10:0.027125498 11:0.059853576 12:0.019647673 13:0.038213428 14:0.027415963 15:0.085692041 16:0.052717108 17:0.022418076 18:0.052436423 19:0.10019775 20:0.048375193 21:0.085319243 22:0.014798301 23:0.058110703 24:0.030267417 25:0.097738288 26:0.023004068 27:0.029473323 28:0.036734462 29:0.095170878 30:0.017678354 31:0.054054253 32:0.021645728 33:0.039358485 34:0.026051112 35:0.078150079 36:0.064386651 37:0.019521376 38:0.061791208 39:0.10676465 40:0.050758537 41:0.090918742 42:0.015466662 43:0.041437916 44:0.028690547 45:0.083333336 47:0.033333335 48:0.0041666669 49:0.076388888 50:0.016666668 51:0.027777778 52:0.016666668 53:0.016666668 54:0.033333335 55:0.095833331 58:0.10277778 59:0.10833333 60:0.0041666669 61:0.30000001 63:0.044444446 64:0.023611112 65:0.083333336 67:0.033333335 68:0.0041666669 69:0.076388888 70:0.016666668 71:0.027777778 72:0.016666668 73:0.016666668 74:0.033333335 75:0.095833331 78:0.10277778 79:0.10833333 80:0.0041666669 81:0.30000001 83:0.044444446 84:0.023611112 85:0.050000001 86:0.083333336 87:0.033333335 88:0.033333335 89:0.033333335 90:0.050000001 91:0.06666667 92:0.016666668 93:0.016666668 94:0.033333335 95:0.06666667 96:0.083333336 98:0.033333335 99:0.033333335 100:0.1 101:0.1 102:0.033333335 103:0.050000001 104:0.083333336 #P16395
4.01530229255308590552431269316 1:0.041999999 2:0.32814816 3:0.26074073 4:0.38095239 5:0.11217394 6:0.0018647782 7:0.025673419 8:0.016663997 9:0.056995057 10:0.082125895 11:0.14629669 12:0.014410321 13:0.013366728 14:0.041169666 15:0.15970021 16:0.062705331 17:0.015155771 18:9.678668e-05 19:0.055922497 20:0.035464097 21:0.042086367 22:0.00038714672 23:0.10029057 24:0.017158778 25:0.13270421 26:0.00051973941 27:0.043700576 28:0.017784553 29:0.066651538 30:0.058108691 31:0.1496398 32:0.017369308 33:0.021799201 34:0.041170452 35:0.16687274 36:0.081928752 37:0.019664494 39:0.027664062 40:0.058182795 41:0.025122706 43:0.067876227 44:0.002729258 45:0.088828504 46:0.0021315592 47:0.019346284 48:0.018783292 49:0.048207413 50:0.10085134 51:0.14284055 52:0.0032688559 53:0.014961727 54:0.057661451 55:0.18350801 56:0.066865802 57:0.019370526 58:0.00014017381 59:0.046340756 60:0.019662099 61:0.045038585 63:0.10856709 64:0.013203164 65:0.092799231 66:0.0020605072 67:0.018701408 68:0.018157182 69:0.04728245 70:0.097760633 71:0.13971077 72:0.0071160891 73:0.014736227 74:0.056282517 75:0.17916036 76:0.064772442 77:0.020499688 78:0.00013550135 79:0.049022153 80:0.019957427 81:0.046527214 83:0.11119346 84:0.01371601 85:0.13621217 86:0.00099082442 87:0.037182193 88:0.024134064 89:0.062939502 90:0.084500976 91:0.13688935 92:0.016045563 93:0.0046796282 94:0.018466216 95:0.15284887 96:0.057704277 97:0.019258745 98:0.00014017381 99:0.058087066 100:0.031839874 101:0.037674423 102:0.00056069525 103:0.097492993 104:0.021929575 #Q9B8D0
6 1:0.185 2:0.19370371 3:0.16666667 4:0.26756757 5:0.06211926 6:0.014157014 7:0.038610037 8:0.036507938 9:0.052960102 10:0.085714288 11:0.077772416 12:0.012333762 13:0.043060917 14:0.024882024 15:0.13616474 16:0.035671387 17:0.018382668 18:0.031188332 19:0.098670095 20:0.025504075 21:0.058730159 22:0.018747319 23:0.080571644 24:0.023670098 25:0.070216052 26:0.020061728 27:0.037836198 28:0.033179011 29:0.07330247 30:0.10394621 31:0.062045306 32:0.0084876539 33:0.036816578 34:0.017967371 35:0.16765873 36:0.021604938 37:0.0017361111 38:0.036265433 39:0.10857584 40:0.0069444445 41:0.062279541 42:0.027777778 43:0.073977627 44:0.028328924 45:0.045155995 46:0.0049261083 47:0.022167487 48:0.043513957 49:0.049261082 50:0.088669948 51:0.071428575 52:0.017241379 53:0.027914613 54:0.036124796 55:0.15024631 56:0.054187194 57:0.0073891627 58:0.029556651 59:0.073891625 60:0.019704433 61:0.056650247 62:0.017241379 63:0.12807882 64:0.049261082 65:0.043650795 66:0.0047619049 67:0.021428572 68:0.046825398 69:0.047619049 70:0.08809524 71:0.071428575 72:0.016666668 73:0.026984127 74:0.034920637 75:0.15000001 76:0.052380953 77:0.0071428572 78:0.030952381 79:0.071428575 80:0.01904762 81:0.064285718 82:0.016666668 83:0.12380952 84:0.047619049 85:0.10925926 86:0.025925925 87:0.053703703 88:0.050000001 89:0.049074072 90:0.11666667 91:0.11134259 92:0.012037037 93:0.052314814 94:0.025925925 95:0.07962963 96:0.026851851 97:0.026851851 98:0.046296295 99:0.070370369 100:0.012037037 101:0.025925925 102:0.016666668 103:0.077546299 104:0.011574074 #Q04083
-0.5905528118287662886487510149891 1:0.13699999 2:-0.17222223 3:0.10444444 4:0.054744527 5:0.058051605 6:0.0093656313 7:0.09281984 8:0.052779272 9:0.038223799 10:0.025837928 11:0.076114394 12:0.016632663 13:0.071048088 14:0.030853163 15:0.084212013 16:0.039939154 17:0.073592305 18:0.020706186 19:0.078571536 20:0.06157029 21:0.049341559 22:0.0034081843 23:0.060909692 24:0.018724672 25:0.043439813 27:0.057694376 28:0.067108802 29:0.070759527 30:0.065519333 31:0.13786541 32:0.0054691816 33:0.03206905 34:0.039534573 35:0.068454094 36:0.035297282 37:0.072257176 38:0.029761905 39:0.074235901 40:0.13067007 41:0.0046041952 43:0.046813764 44:0.0071428572 45:0.041894637 46:0.0064117741 47:0.07981547 48:0.050148975 49:0.077990308 50:0.035103787 51:0.062862024 52:0.0078223906 53:0.050396722 54:0.04084016 55:0.067990735 56:0.030848676 57:0.066647165 58:0.068891875 59:0.10378283 60:0.041233111 61:0.057227414 62:0.002016129 63:0.0372192 64:0.031603601 65:0.045763608 66:0.0083740503 67:0.073158063 68:0.052570008 69:0.06537383 70:0.031071644 71:0.06224408 72:0.012663844 73:0.049034256 74:0.0371041 75:0.065924495 76:0.037522078 77:0.068976425 78:0.067465641 79:0.10374033 80:0.045150355 81:0.054353334 82:0.0016129032 83:0.038997222 84:0.027243664 85:0.077541329 86:0.024167106 87:0.046622511 88:0.038109295 89:0.023852464 90:0.019530088 91:0.12910861 92:0.019585934 93:0.094438523 94:0.027706321 95:0.092432186 96:0.03631549 97:0.043879729 99:0.066561706 100:0.057734188 101:0.038196038 102:0.011386039 103:0.11300471 104:0.034117684 #Q9ER00
-6 1:0.1705 2:0.28703704 3:0.30592594 4:0.29618767 5:0.058911696 6:0.011811665 7:0.029406972 8:0.032746822 9:0.058895405 10:0.096855655 11:0.079488434 12:0.012649537 13:0.035353534 14:0.024600847 15:0.15241121 16:0.036133222 17:0.019468883 18:0.02838058 19:0.092701204 20:0.022645812 21:0.061676674 22:0.021505376 23:0.081427172 24:0.028918214 25:0.042929292 26:0.011849262 27:0.013986014 28:0.021561772 29:0.075369075 30:0.1064491 31:0.060606062 32:0.011460762 33:0.026806526 34:0.019619269 35:0.21212122 36:0.024475524 37:0.012432013 38:0.034965035 39:0.097707845 40:0.0071872571 41:0.08255633 42:0.034965035 43:0.074980572 44:0.027972028 45:0.050000001 46:0.0041666669 47:0.0125 48:0.037500001 49:0.050000001 50:0.1125 51:0.083333336 52:0.0125 53:0.016666668 54:0.025 55:0.19166666 56:0.041666668 57:0.016666668 58:0.033333335 59:0.06666667 60:0.0083333338 61:0.070833333 62:0.033333335 63:0.091666669 64:0.041666668 65:0.050000001 66:0.0041666669 67:0.0125 68:0.037500001 69:0.050000001 70:0.1125 71:0.083333336 72:0.0125 73:0.016666668 74:0.025 75:0.19166666 76:0.041666668 77:0.016666668 78:0.033333335 79:0.06666667 80:0.0083333338 81:0.070833333 82:0.033333335 83:0.091666669 84:0.041666668 85:0.068148151 86:0.02037037 87:0.010185185 88:0.022222223 89:0.054629631 90:0.11851852 91:0.10962963 92:0.013095238 93:0.023148147 94:0.037037037 95:0.14074074 96:0.035449736 97:0.029629629 98:0.041851852 99:0.093518518 100:0.0046296297 101:0.057936508 102:0.027777778 103:0.072962962 104:0.018518519 #O94654
-5.4460028926095098711357422871515 1:0.22400001 2:0.27296296 3:0.20555556 4:0.2767857 5:0.072272085 6:0.020093523 7:0.023302678 8:0.016114391 9:0.059242543 10:0.063007362 11:0.081626751 12:0.01307154 13:0.03353579 14:0.031652153 15:0.12146174 16:0.029568274 17:0.019011857 18:0.035206933 19:0.072101563 20:0.023607919 21:0.052654151 22:0.0086992169 23:0.082810231 24:0.03292302 25:0.07369525 26:0.022392344 29:0.13558069 30:0.11038654 31:0.059083499 32:0.020264797 33:0.037715334 34:0.040553957 35:0.11648625 36:0.023743253 37:0.0020804196 38:0.088041961 39:0.064771786 40:0.040836602 41:0.047954544 42:0.015297202 43:0.046816226 44:0.051886752 45:0.12743133 46:0.0098684207 47:0.0027412281 48:0.0010964912 49:0.11723319 50:0.062317252 51:0.081588164 52:0.006122076 53:0.014376218 54:0.050558846 55:0.15789473 56:0.052309711 57:0.0071271928 58:0.022203946 59:0.11868561 60:0.0080409357 61:0.046522673 62:0.0032894737 63:0.074377835 64:0.021960283 65:0.11606511 66:0.018515885 67:0.0030701754 68:0.0030701754 69:0.098172516 70:0.062792398 71:0.084300086 72:0.011038012 73:0.018957116 74:0.055635951 75:0.1594397 76:0.045356542 77:0.011476608 78:0.018640351 79:0.10679059 80:0.0090643279 81:0.040726911 82:0.0043859649 83:0.083354406 84:0.027217349 85:0.091539592 86:0.020137766 87:0.017018128 88:0.003144654 89:0.058431342 90:0.071182169 91:0.094382912 92:0.006289308 93:0.07842961 94:0.038929265 95:0.16607668 96:0.027175361 97:0.008086253 98:0.039885487 99:0.065669447 100:0.011084685 101:0.064069793 102:0.0026954177 103:0.059803281 104:0.025363881 #P40074
-6 1:0.2375 2:0.24222222 3:0.15814815 4:0.14105263 5:0.060350876 6:0.021754386 7:0.049122807 8:0.053333335 9:0.044210527 10:0.082807019 11:0.079298243 12:0.025263159 13:0.049122807 14:0.040701754 15:0.10877193 16:0.051929824 17:0.042105265 18:0.018947368 19:0.062456142 20:0.032280702 21:0.061754387 22:0.007017544 23:0.059649121 24:0.040701754 25:0.055710308 26:0.019498607 27:0.052924789 28:0.06406685 29:0.044568244 30:0.091922008 31:0.075208917 32:0.030640669 33:0.041782729 34:0.038997214 35:0.10584958 36:0.052924789 37:0.047353759 38:0.019498607 39:0.055710308 40:0.038997214 41:0.06406685 42:0.0055710305 43:0.055710308 44:0.038997214 45:0.033333335 46:0.050000001 47:0.016666668 48:0.033333335 49:0.033333335 50:0.050000001 51:0.16666667 52:0.016666668 54:0.083333336 55:0.15000001 56:0.06666667 57:0.050000001 58:0.033333335 59:0.06666667 60:0.016666668 61:0.016666668 62:0.016666668 63:0.050000001 64:0.050000001 65:0.033333335 66:0.050000001 67:0.016666668 68:0.033333335 69:0.033333335 70:0.050000001 71:0.16666667 72:0.016666668 74:0.083333336 75:0.15000001 76:0.06666667 77:0.050000001 78:0.033333335 79:0.06666667 80:0.016666668 81:0.016666668 82:0.016666668 83:0.050000001 84:0.050000001 85:0.06666667 87:0.027777778 88:0.033333335 89:0.061111111 90:0.12777779 91:0.06666667 92:0.016666668 93:0.016666668 94:0.055555556 95:0.16111112 96:0.03888889 97:0.055555556 99:0.072222225 100:0.022222223 101:0.088888891 102:0.011111111 103:0.033333335 104:0.033333335 #Q9VKA5
6 1:0.184 2:-0.23555556 3:-0.19037037 4:0.016304348 5:0.052898552 6:0.0032608695 7:0.063405797 8:0.061956521 9:0.060326088 10:0.028804347 11:0.060326088 12:0.016304348 13:0.066485509 14:0.021195652 15:0.084239133 16:0.064673916 17:0.032789856 18:0.071150362 19:0.070652172 20:0.040760871 21:0.049275361 22:0.026086956 23:0.044972826 24:0.044021741 25:0.044919785 26:0.0010695187 27:0.07272727 28:0.069518715 29:0.075935826 30:0.027807487 31:0.059893049 32:0.0074866312 33:0.068449199 34:0.02459893 35:0.11229946 36:0.05882353 37:0.010695187 38:0.10187165 39:0.047058824 40:0.043850269 41:0.036363635 42:0.04171123 43:0.031818181 44:0.05668449 45:0.013333334 47:0.0033333334 48:0.063333333 49:0.090000004 50:0.0066666668 51:0.083333336 52:0.0033333334 53:0.063333333 54:0.02 55:0.029999999 56:0.093333334 57:0.02 58:0.15333334 59:0.12333333 60:0.0099999998 61:0.076666668 62:0.0033333334 63:0.033333335 64:0.029999999 65:0.013333334 67:0.0033333334 68:0.063333333 69:0.090000004 70:0.0066666668 71:0.083333336 72:0.0033333334 73:0.063333333 74:0.02 75:0.029999999 76:0.093333334 77:0.02 78:0.15333334 79:0.12333333 80:0.0099999998 81:0.076666668 82:0.0033333334 83:0.033333335 84:0.029999999 85:0.037777778 87:0.16222222 88:0.13666667 89:0.0099999998 90:0.033333335 91:0.033333335 92:0.0066666668 93:0.027777778 94:0.033333335 95:0.076666668 96:0.036666665 97:0.027777778 98:0.056388889 99:0.039999999 100:0.033333335 101:0.072222225 102:0.046666667 103:0.069166668 104:0.026666667 #Q5AHC2
-6 1:0.1485 2:-0.27851853 3:-0.27074075 5:0.061215937 6:0.0074213119 7:0.062905632 8:0.045005668 9:0.04797921 10:0.049987316 11:0.052384846 12:0.032858077 13:0.07245294 14:0.020937381 15:0.076001808 16:0.041246686 17:0.045625031 18:0.083807394 19:0.087805048 20:0.040927272 21:0.042531785 22:0.01835216 23:0.059396133 24:0.037771113 25:0.038445197 26:0.00041771095 27:0.05919081 28:0.046141669 29:0.05858925 30:0.082038805 31:0.027130883 32:0.034160051 33:0.062806427 34:0.027545454 35:0.081756301 36:0.038323358 37:0.029294459 38:0.14367615 39:0.078395255 40:0.033072092 41:0.017089492 42:0.043184884 43:0.036029898 44:0.057743952 45:0.070512824 47:0.04871795 48:0.031196581 49:0.039743591 50:0.016666668 51:0.041025642 52:0.0012820513 53:0.10769231 54:0.046153847 55:0.042307694 56:0.053418804 57:0.03846154 58:0.12307692 59:0.1397436 60:0.057692308 61:0.055128206 62:0.015384615 63:0.026923077 65:0.070512824 67:0.04871795 68:0.031196581 69:0.039743591 70:0.016666668 71:0.041025642 72:0.0012820513 73:0.10769231 74:0.046153847 75:0.042307694 76:0.053418804 77:0.03846154 78:0.12307692 79:0.1397436 80:0.057692308 81:0.055128206 82:0.015384615 83:0.026923077 85:0.041202974 86:0.0020283975 87:0.095341779 88:0.030809866 89:0.069414563 90:0.044578515 91:0.033470266 92:0.043373611 93:0.1029593 94:0.012248926 95:0.063300349 96:0.034147058 97:0.060836561 98:0.084424891 99:0.093007095 100:0.032346401 101:0.038964696 102:0.023326572 103:0.064534798 104:0.01946626 #B5X1G6
-6 1:0.2015 2:0.0096296296 3:-0.045925926 4:0.029776676 5:0.087363712 6:0.0043562171 7:0.032809485 8:0.047222223 9:0.062655084 10:0.040936034 11:0.048139583 12:0.015384615 13:0.056596361 14:0.015970498 15:0.10848435 16:0.051661152 17:0.034558363 18:0.053287216 19:0.10563137 20:0.021684587 21:0.087618746 22:0.0018610422 23:0.076915555 24:0.026268266 25:0.10207786 26:0.00087489065 27:0.014129484 28:0.025043745 29:0.082567804 30:0.05376203 31:0.053849518 32:0.01399825 33:0.019028872 34:0.012904637 35:0.16743219 36:0.041557305 37:0.012248469 38:0.083027124 39:0.062073492 40:0.021434821 41:0.10590551 42:0.00065616798 43:0.079965003 44:0.03696413 45:0.11106403 46:0.0033898305 47:0.024482109 48:0.026365349 49:0.0058851223 50:0.068126179 51:0.058192089 52:0.03079096 53:0.031544257 54:0.020715632 55:0.15602636 56:0.063088514 57:0.031261772 58:0.015065913 59:0.11836158 60:0.061676081 61:0.10150659 63:0.042325802 64:0.030131826 65:0.10921296 66:0.0033333334 67:0.024074074 68:0.029629629 69:0.0057870368 70:0.06884259 71:0.057222221 72:0.03398148 73:0.031018518 74:0.02037037 75:0.15342593 76:0.062037036 77:0.030740742 78:0.014814815 79:0.11824074 80:0.060648147 81:0.10166667 83:0.04162037 84:0.033333335 85:0.1175 86:0.011111111 87:0.035833333 88:0.083333336 89:0.086111113 90:0.020833334 91:0.022222223 93:0.075000003 94:0.019444445 95:0.047222223 96:0.031666666 98:0.067500003 99:0.13916667 100:0.0083333338 101:0.050833333 102:0.011111111 103:0.084444441 #Q9SU13
-1.7447119350843993679234245064436 1:0.119 2:0.094444446 3:0.0088888891 4:0.042016808 5:0.1092437 6:0.016806724 7:0.054621849 8:0.037815128 9:0.046218488 10:0.075630255 11:0.042016808 12:0.025210084 13:0.088235296 14:0.021008404 15:0.096638657 16:0.046218488 17:0.033613447 18:0.033613447 19:0.084033616 20:0.021008404 21:0.025210084 22:0.012605042 23:0.071428575 24:0.05882353 25:0.1092437 26:0.016806724 27:0.054621849 28:0.037815128 29:0.046218488 30:0.075630255 31:0.042016808 32:0.025210084 33:0.088235296 34:0.021008404 35:0.096638657 36:0.046218488 37:0.033613447 38:0.033613447 39:0.084033616 40:0.021008404 41:0.025210084 42:0.012605042 43:0.071428575 44:0.05882353 45:0.1 46:0.033333335 47:0.1 48:0.050000001 49:0.016666668 50:0.1 51:0.033333335 52:0.016666668 53:0.033333335 54:0.033333335 55:0.1 56:0.06666667 57:0.016666668 58:0.033333335 59:0.06666667 61:0.033333335 63:0.11666667 64:0.050000001 65:0.1 66:0.033333335 67:0.1 68:0.050000001 69:0.016666668 70:0.1 71:0.033333335 72:0.016666668 73:0.033333335 74:0.033333335 75:0.1 76:0.06666667 77:0.016666668 78:0.033333335 79:0.06666667 81:0.033333335 83:0.11666667 84:0.050000001 85:0.23333333 89:0.06666667 90:0.050000001 91:0.050000001 92:0.016666668 93:0.15000001 94:0.033333335 95:0.06666667 96:0.016666668 97:0.050000001 98:0.016666668 99:0.083333336 100:0.016666668 101:0.016666668 102:0.016666668 103:0.033333335 104:0.083333336 #O74551
6 1:0.122 2:0.20925926 3:0.18037038 4:0.26229507 5:0.060891703 6:0.024627421 7:0.03479467 8:0.015524093 9:0.025745157 10:0.11879037 11:0.11402757 12:0.01130154 13:0.039348401 14:0.021609537 15:0.14455208 16:0.018939395 17:0.02790197 18:0.045466963 19:0.064905196 20:0.027011922 21:0.051643483 22:0.013040238 23:0.071087927 24:0.053142078 25:0.02631579 27:0.055023924 28:0.02631579 30:0.15000001 31:0.06374269 33:0.0071770335 34:0.02631579 35:0.080515683 36:0.02631579 37:0.075093038 38:0.18181819 39:0.023923445 40:0.069377989 41:0.075624667 42:0.023923445 43:0.0023923444 44:0.083732061 45:0.045779221 46:0.03409091 47:0.044191919 48:0.021103896 49:0.017857144 50:0.10681818 51:0.13668831 52:0.021645023 53:0.02994228 54:0.027597403 55:0.15710679 56:0.032467533 57:0.01497114 58:0.029545454 59:0.049062051 60:0.032467533 61:0.064574316 62:0.0097402595 63:0.064285718 64:0.050324675 65:0.042727273 66:0.031818181 67:0.044276096 68:0.01969697 69:0.018181818 70:0.099696971 71:0.13363637 72:0.02020202 73:0.02946128 74:0.028787879 75:0.15723906 76:0.036363635 77:0.018518519 78:0.033636365 79:0.04882155 80:0.036363635 81:0.061784513 82:0.012121212 83:0.061515152 84:0.051515151 85:0.073737375 86:0.019298246 87:0.03375864 88:0.028176501 89:0.022488039 90:0.10850611 91:0.12416268 92:0.0031897926 93:0.057682086 94:0.01275917 95:0.15023923 96:0.0093035623 97:0.04253057 98:0.04917597 99:0.057389688 100:0.034290273 101:0.039606594 102:0.0063795852 103:0.080063798 104:0.047262095 #P38459
6 1:0.24950001 2:0.20111111 3:0.10740741 4:0.30460921 5:0.089046061 6:0.0091596488 7:0.030423027 8:0.022754544 9:0.072323717 10:0.06528575 11:0.08406169 12:0.0090006292 13:0.025477804 14:0.037520431 15:0.15289184 16:0.028396633 17:0.021514744 18:0.037138529 19:0.079804741 20:0.025307611 21:0.048477195 22:0.013048702 23:0.070006482 24:0.04243163 25:0.090684511 26:0.00083827483 27:0.055498276 28:0.014906194 29:0.13207877 30:0.070526995 31:0.0081884731 32:0.011903114 33:0.075593442 34:0.019524226 35:0.10327573 36:0.012239389 37:0.014330903 38:0.13184059 39:0.093772076 40:0.032583963 41:0.009302631 42:0.014432476 43:0.016084516 44:0.089226842 45:0.064994968 46:0.0051513873 47:0.049455781 48:0.043396097 49:0.028425077 50:0.056880798 51:0.10017625 52:0.0050219339 53:0.042838983 54:0.047217127 55:0.19372235 56:0.018162966 57:0.017082077 58:0.060251039 59:0.065879442 60:0.025591003 61:0.031432051 62:0.016991785 63:0.072871983 64:0.0168151 65:0.064988822 66:0.0060610198 67:0.041748527 68:0.036600478 69:0.031469312 70:0.05344383 71:0.09362556 72:0.0057015135 73:0.034571487 74:0.041789066 75:0.17371982 76:0.017544338 77:0.013960646 78:0.050997376 79:0.058026966 80:0.022002716 81:0.030792734 82:0.01424095 83:0.071047612 84:0.017679123 85:0.066084586 86:0.0036601219 87:0.022286912 88:0.013445678 89:0.033465169 90:0.042125687 91:0.095988929 92:0.0030652215 93:0.028779691 94:0.032272823 95:0.16974658 96:0.044535179 97:0.033635274 98:0.077752732 99:0.07696481 100:0.040502448 101:0.040503997 102:0.012743947 103:0.09276294 104:0.052262641 #O05000
6 1:0.077500001 2:0.13703704 3:0.19 4:0.19354838 5:0.032258064 6:0.030107526 7:0.021505376 8:0.036559138 9:0.027956989 10:0.1032258 11:0.055913977 12:0.012903226 13:0.036559138 14:0.0086021507 15:0.15698925 16:0.023655914 17:0.040860213 18:0.038709678 19:0.062365592 20:0.060215052 21:0.079569891 22:0.030107526 23:0.06666667 24:0.062365592 25:0.038167939 26:0.030534351 27:0.015267176 28:0.038167939 29:0.022900764 30:0.10687023 31:0.053435113 32:0.015267176 33:0.030534351 34:0.0076335878 35:0.16030534 36:0.022900764 37:0.045801528 38:0.045801528 39:0.068702288 40:0.061068702 41:0.083969466 42:0.030534351 43:0.053435113 44:0.068702288 46:0.033333335 47:0.011111111 48:0.011111111 49:0.0055555557 50:0.1 51:0.033333335 52:0.016666668 53:0.044444446 54:0.022222223 55:0.20555556 56:0.044444446 57:0.055555556 58:0.033333335 59:0.027777778 60:0.055555556 61:0.088888891 62:0.027777778 63:0.083333336 64:0.06666667 66:0.033333335 67:0.011111111 68:0.011111111 69:0.0055555557 70:0.1 71:0.033333335 72:0.016666668 73:0.044444446 74:0.022222223 75:0.20555556 76:0.044444446 77:0.055555556 78:0.033333335 79:0.027777778 80:0.055555556 81:0.088888891 82:0.027777778 83:0.083333336 84:0.06666667 85:0.016666668 86:0.016666668 88:0.050000001 89:0.033333335 90:0.16666667 91:0.083333336 92:0.016666668 93:0.033333335 95:0.15000001 97:0.016666668 98:0.050000001 99:0.083333336 100:0.033333335 101:0.083333336 102:0.016666668 103:0.06666667 104:0.083333336 #P38461
6 1:0.19499999 2:-0.30444443 3:-0.20777778 4:0.020512821 5:0.049914531 6:0.0025641026 7:0.065427348 8:0.065128207 9:0.055897437 10:0.026153846 11:0.059358973 12:0.021538461 13:0.072435901 14:0.020512821 15:0.079743586 16:0.070470087 17:0.032820512 18:0.070256412 19:0.080128208 20:0.038333334 21:0.042905983 22:0.026025642 23:0.044358976 24:0.043076921 25:0.040952381 27:0.092380956 28:0.076904759 29:0.06738095 30:0.025714286 31:0.054285713 32:0.015238095 33:0.085238092 34:0.020952381 35:0.086666666 36:0.072380953 37:0.022857143 38:0.094761908 39:0.055952381 40:0.037857141 41:0.025476191 42:0.040714286 43:0.028333334 44:0.05047619 47:0.0083333338 48:0.094166666 49:0.0625 51:0.055833332 53:0.10416666 54:0.016666668 55:0.011666667 56:0.12 57:0.0125 58:0.13 59:0.099166669 61:0.076666668 63:0.037500001 64:0.033333335 67:0.0083333338 68:0.094166666 69:0.0625 71:0.055833332 73:0.10416666 74:0.016666668 75:0.011666667 76:0.12 77:0.0125 78:0.13 79:0.099166669 81:0.076666668 83:0.037500001 84:0.033333335 85:0.044444446 87:0.1736111 88:0.095833331 89:0.0041666669 90:0.016666668 91:0.043333333 92:0.039999999 93:0.033333335 94:0.023333333 95:0.093333334 96:0.05138889 97:0.037500001 98:0.050000001 99:0.094999999 100:0.035833333 101:0.022222223 102:0.055833332 103:0.060833335 104:0.023333333 #A3LN78
